digraph Tree {
node [shape=box, style="filled, rounded", color="black", fontname="helvetica"] ;
edge [fontname="helvetica"] ;
0 [label=<x<SUB>350</SUB> &le; 131.5<br/>gini = 0.9<br/>samples = 60000<br/>value = [5923, 6742, 5958, 6131, 5842, 5421, 5918, 6265, 5851<br/>5949]<br/>class = 1 - one>, fillcolor="#fffffd"] ;
1 [label=<x<SUB>568</SUB> &le; 0.5<br/>gini = 0.881<br/>samples = 39160<br/>value = [5433, 623, 4772, 1312, 5353, 3266, 4775, 5773, 3081<br/>4772]<br/>class = 7 - seven>, fillcolor="#fefdff"] ;
0 -> 1 [labeldistance=2.5, labelangle=45, headlabel="True"] ;
2 [label=<x<SUB>430</SUB> &le; 0.5<br/>gini = 0.839<br/>samples = 24084<br/>value = [697, 414, 904, 847, 5133, 1668, 2771, 5568, 1439<br/>4643]<br/>class = 7 - seven>, fillcolor="#fdfafe"] ;
1 -> 2 ;
3 [label=<x<SUB>405</SUB> &le; 2.5<br/>gini = 0.705<br/>samples = 9667<br/>value = [258, 404, 565, 424, 503, 503, 315, 4974, 836, 885]<br/>class = 7 - seven>, fillcolor="#d4a3f3"] ;
2 -> 3 ;
4 [label=<x<SUB>484</SUB> &le; 0.5<br/>gini = 0.475<br/>samples = 6717<br/>value = [247, 71, 401, 93, 336, 92, 166, 4803, 18, 490]<br/>class = 7 - seven>, fillcolor="#bf76ed"] ;
3 -> 4 ;
5 [label=<x<SUB>153</SUB> &le; 0.5<br/>gini = 0.262<br/>samples = 5435<br/>value = [131, 71, 318, 87, 14, 64, 19, 4655, 13, 63]<br/>class = 7 - seven>, fillcolor="#b157e9"] ;
4 -> 5 ;
6 [label=<x<SUB>594</SUB> &le; 2.0<br/>gini = 0.128<br/>samples = 4946<br/>value = [79, 51, 57, 35, 13, 22, 7, 4617, 7, 58]<br/>class = 7 - seven>, fillcolor="#a946e7"] ;
5 -> 6 ;
7 [label=<x<SUB>156</SUB> &le; 0.5<br/>gini = 0.096<br/>samples = 4857<br/>value = [1, 49, 57, 31, 13, 17, 7, 4617, 7, 58]<br/>class = 7 - seven>, fillcolor="#a843e6"] ;
6 -> 7 ;
8 [label=<x<SUB>554</SUB> &le; 3.5<br/>gini = 0.075<br/>samples = 4796<br/>value = [0, 16, 52, 31, 12, 11, 3, 4612, 3, 56]<br/>class = 7 - seven>, fillcolor="#a741e6"] ;
7 -> 8 ;
9 [label=<x<SUB>159</SUB> &le; 11.5<br/>gini = 0.063<br/>samples = 4748<br/>value = [0, 16, 29, 28, 12, 7, 3, 4596, 3, 54]<br/>class = 7 - seven>, fillcolor="#a63fe6"] ;
8 -> 9 ;
10 [label=<x<SUB>377</SUB> &le; 9.0<br/>gini = 0.058<br/>samples = 4736<br/>value = [0, 6, 29, 28, 11, 6, 3, 4596, 3, 54]<br/>class = 7 - seven>, fillcolor="#a63fe6"] ;
9 -> 10 ;
11 [label=<x<SUB>457</SUB> &le; 159.0<br/>gini = 0.05<br/>samples = 4702<br/>value = [0, 6, 29, 27, 5, 4, 3, 4582, 2, 44]<br/>class = 7 - seven>, fillcolor="#a53ee6"] ;
10 -> 11 ;
12 [label=<x<SUB>511</SUB> &le; 113.0<br/>gini = 0.046<br/>samples = 4690<br/>value = [0, 6, 29, 27, 5, 3, 3, 4580, 2, 35]<br/>class = 7 - seven>, fillcolor="#a53ee6"] ;
11 -> 12 ;
13 [label=<x<SUB>461</SUB> &le; 225.5<br/>gini = 0.043<br/>samples = 4683<br/>value = [0, 6, 29, 27, 4, 3, 0, 4580, 2, 32]<br/>class = 7 - seven>, fillcolor="#a53de6"] ;
12 -> 13 ;
14 [label=<x<SUB>639</SUB> &le; 39.0<br/>gini = 0.031<br/>samples = 4557<br/>value = [0, 5, 23, 11, 2, 2, 0, 4485, 1, 28]<br/>class = 7 - seven>, fillcolor="#a43ce5"] ;
13 -> 14 ;
15 [label=<x<SUB>151</SUB> &le; 193.0<br/>gini = 0.029<br/>samples = 4551<br/>value = [0, 5, 18, 11, 2, 2, 0, 4484, 1, 28]<br/>class = 7 - seven>, fillcolor="#a43ce5"] ;
14 -> 15 ;
16 [label=<x<SUB>609</SUB> &le; 235.5<br/>gini = 0.027<br/>samples = 4545<br/>value = [0, 5, 15, 10, 2, 2, 0, 4482, 1, 28]<br/>class = 7 - seven>, fillcolor="#a43ce5"] ;
15 -> 16 ;
17 [label=<x<SUB>500</SUB> &le; 1.0<br/>gini = 0.027<br/>samples = 4543<br/>value = [0, 5, 13, 10, 2, 2, 0, 4482, 1, 28]<br/>class = 7 - seven>, fillcolor="#a43ce5"] ;
16 -> 17 ;
18 [label=<x<SUB>350</SUB> &le; 0.5<br/>gini = 0.025<br/>samples = 4533<br/>value = [0, 5, 9, 10, 2, 2, 0, 4476, 1, 28]<br/>class = 7 - seven>, fillcolor="#a43ce5"] ;
17 -> 18 ;
19 [label=<x<SUB>675</SUB> &le; 30.0<br/>gini = 0.013<br/>samples = 4097<br/>value = [0, 3, 8, 7, 1, 0, 0, 4071, 1, 6]<br/>class = 7 - seven>, fillcolor="#a43ae5"] ;
18 -> 19 ;
20 [label=<x<SUB>388</SUB> &le; 159.0<br/>gini = 0.012<br/>samples = 4096<br/>value = [0, 3, 8, 6, 1, 0, 0, 4071, 1, 6]<br/>class = 7 - seven>, fillcolor="#a43ae5"] ;
19 -> 20 ;
21 [label=<x<SUB>694</SUB> &le; 173.0<br/>gini = 0.012<br/>samples = 4095<br/>value = [0, 3, 7, 6, 1, 0, 0, 4071, 1, 6]<br/>class = 7 - seven>, fillcolor="#a43ae5"] ;
20 -> 21 ;
22 [label=<x<SUB>263</SUB> &le; 5.0<br/>gini = 0.011<br/>samples = 4094<br/>value = [0, 3, 6, 6, 1, 0, 0, 4071, 1, 6]<br/>class = 7 - seven>, fillcolor="#a43ae5"] ;
21 -> 22 ;
23 [label=<x<SUB>691</SUB> &le; 8.0<br/>gini = 0.09<br/>samples = 344<br/>value = [0, 3, 5, 4, 1, 0, 0, 328, 1, 2]<br/>class = 7 - seven>, fillcolor="#a742e6"] ;
22 -> 23 ;
24 [label=<x<SUB>434</SUB> &le; 249.0<br/>gini = 0.064<br/>samples = 335<br/>value = [0, 3, 2, 3, 0, 0, 0, 324, 1, 2]<br/>class = 7 - seven>, fillcolor="#a640e6"] ;
23 -> 24 ;
25 [label=<x<SUB>303</SUB> &le; 149.5<br/>gini = 0.053<br/>samples = 332<br/>value = [0, 1, 2, 3, 0, 0, 0, 323, 1, 2]<br/>class = 7 - seven>, fillcolor="#a63ee6"] ;
24 -> 25 ;
26 [label=<x<SUB>607</SUB> &le; 200.5<br/>gini = 0.048<br/>samples = 331<br/>value = [0, 1, 1, 3, 0, 0, 0, 323, 1, 2]<br/>class = 7 - seven>, fillcolor="#a53ee6"] ;
25 -> 26 ;
27 [label=<x<SUB>255</SUB> &le; 244.0<br/>gini = 0.042<br/>samples = 330<br/>value = [0, 1, 0, 3, 0, 0, 0, 323, 1, 2]<br/>class = 7 - seven>, fillcolor="#a53de6"] ;
26 -> 27 ;
28 [label=<x<SUB>578</SUB> &le; 172.0<br/>gini = 0.036<br/>samples = 329<br/>value = [0, 1, 0, 2, 0, 0, 0, 323, 1, 2]<br/>class = 7 - seven>, fillcolor="#a53de5"] ;
27 -> 28 ;
29 [label=<x<SUB>256</SUB> &le; 204.0<br/>gini = 0.019<br/>samples = 319<br/>value = [0, 1, 0, 1, 0, 0, 0, 316, 0, 1]<br/>class = 7 - seven>, fillcolor="#a43be5"] ;
28 -> 29 ;
30 [label=<x<SUB>265</SUB> &le; 252.5<br/>gini = 0.013<br/>samples = 317<br/>value = [0, 0, 0, 1, 0, 0, 0, 315, 0, 1]<br/>class = 7 - seven>, fillcolor="#a43ae5"] ;
29 -> 30 ;
31 [label=<x<SUB>462</SUB> &le; 254.5<br/>gini = 0.006<br/>samples = 312<br/>value = [0, 0, 0, 1, 0, 0, 0, 311, 0, 0]<br/>class = 7 - seven>, fillcolor="#a33ae5"] ;
30 -> 31 ;
32 [label=<gini = 0.0<br/>samples = 300<br/>value = [0, 0, 0, 0, 0, 0, 0, 300, 0, 0]<br/>class = 7 - seven>, fillcolor="#a339e5"] ;
31 -> 32 ;
33 [label=<x<SUB>658</SUB> &le; 127.0<br/>gini = 0.153<br/>samples = 12<br/>value = [0, 0, 0, 1, 0, 0, 0, 11, 0, 0]<br/>class = 7 - seven>, fillcolor="#ab4be7"] ;
31 -> 33 ;
34 [label=<gini = 0.0<br/>samples = 11<br/>value = [0, 0, 0, 0, 0, 0, 0, 11, 0, 0]<br/>class = 7 - seven>, fillcolor="#a339e5"] ;
33 -> 34 ;
35 [label=<gini = 0.0<br/>samples = 1<br/>value = [0, 0, 0, 1, 0, 0, 0, 0, 0, 0]<br/>class = 3 - three>, fillcolor="#39e55e"] ;
33 -> 35 ;
36 [label=<x<SUB>599</SUB> &le; 190.0<br/>gini = 0.32<br/>samples = 5<br/>value = [0, 0, 0, 0, 0, 0, 0, 4, 0, 1]<br/>class = 7 - seven>, fillcolor="#ba6aec"] ;
30 -> 36 ;
37 [label=<gini = 0.0<br/>samples = 4<br/>value = [0, 0, 0, 0, 0, 0, 0, 4, 0, 0]<br/>class = 7 - seven>, fillcolor="#a339e5"] ;
36 -> 37 ;
38 [label=<gini = 0.0<br/>samples = 1<br/>value = [0, 0, 0, 0, 0, 0, 0, 0, 0, 1]<br/>class = 9 - nine>, fillcolor="#e53958"] ;
36 -> 38 ;
39 [label=<x<SUB>380</SUB> &le; 147.5<br/>gini = 0.5<br/>samples = 2<br/>value = [0, 1, 0, 0, 0, 0, 0, 1, 0, 0]<br/>class = 1 - one>, fillcolor="#ffffff"] ;
29 -> 39 ;
40 [label=<gini = 0.0<br/>samples = 1<br/>value = [0, 1, 0, 0, 0, 0, 0, 0, 0, 0]<br/>class = 1 - one>, fillcolor="#e2e539"] ;
39 -> 40 ;
41 [label=<gini = 0.0<br/>samples = 1<br/>value = [0, 0, 0, 0, 0, 0, 0, 1, 0, 0]<br/>class = 7 - seven>, fillcolor="#a339e5"] ;
39 -> 41 ;
42 [label=<x<SUB>684</SUB> &le; 77.5<br/>gini = 0.48<br/>samples = 10<br/>value = [0, 0, 0, 1, 0, 0, 0, 7, 1, 1]<br/>class = 7 - seven>, fillcolor="#c27bee"] ;
28 -> 42 ;
43 [label=<gini = 0.0<br/>samples = 7<br/>value = [0, 0, 0, 0, 0, 0, 0, 7, 0, 0]<br/>class = 7 - seven>, fillcolor="#a339e5"] ;
42 -> 43 ;
44 [label=<x<SUB>234</SUB> &le; 86.5<br/>gini = 0.667<br/>samples = 3<br/>value = [0, 0, 0, 1, 0, 0, 0, 0, 1, 1]<br/>class = 3 - three>, fillcolor="#ffffff"] ;
42 -> 44 ;
45 [label=<gini = 0.0<br/>samples = 1<br/>value = [0, 0, 0, 0, 0, 0, 0, 0, 0, 1]<br/>class = 9 - nine>, fillcolor="#e53958"] ;
44 -> 45 ;
46 [label=<x<SUB>205</SUB> &le; 232.0<br/>gini = 0.5<br/>samples = 2<br/>value = [0, 0, 0, 1, 0, 0, 0, 0, 1, 0]<br/>class = 3 - three>, fillcolor="#ffffff"] ;
44 -> 46 ;
47 [label=<gini = 0.0<br/>samples = 1<br/>value = [0, 0, 0, 0, 0, 0, 0, 0, 1, 0]<br/>class = 8 - eight>, fillcolor="#e539c0"] ;
46 -> 47 ;
48 [label=<gini = 0.0<br/>samples = 1<br/>value = [0, 0, 0, 1, 0, 0, 0, 0, 0, 0]<br/>class = 3 - three>, fillcolor="#39e55e"] ;
46 -> 48 ;
49 [label=<gini = 0.0<br/>samples = 1<br/>value = [0, 0, 0, 1, 0, 0, 0, 0, 0, 0]<br/>class = 3 - three>, fillcolor="#39e55e"] ;
27 -> 49 ;
50 [label=<gini = 0.0<br/>samples = 1<br/>value = [0, 0, 1, 0, 0, 0, 0, 0, 0, 0]<br/>class = 2 - two>, fillcolor="#7be539"] ;
26 -> 50 ;
51 [label=<gini = 0.0<br/>samples = 1<br/>value = [0, 0, 1, 0, 0, 0, 0, 0, 0, 0]<br/>class = 2 - two>, fillcolor="#7be539"] ;
25 -> 51 ;
52 [label=<x<SUB>463</SUB> &le; 180.5<br/>gini = 0.444<br/>samples = 3<br/>value = [0, 2, 0, 0, 0, 0, 0, 1, 0, 0]<br/>class = 1 - one>, fillcolor="#f0f29c"] ;
24 -> 52 ;
53 [label=<gini = 0.0<br/>samples = 1<br/>value = [0, 0, 0, 0, 0, 0, 0, 1, 0, 0]<br/>class = 7 - seven>, fillcolor="#a339e5"] ;
52 -> 53 ;
54 [label=<gini = 0.0<br/>samples = 2<br/>value = [0, 2, 0, 0, 0, 0, 0, 0, 0, 0]<br/>class = 1 - one>, fillcolor="#e2e539"] ;
52 -> 54 ;
55 [label=<x<SUB>494</SUB> &le; 39.5<br/>gini = 0.667<br/>samples = 9<br/>value = [0, 0, 3, 1, 1, 0, 0, 4, 0, 0]<br/>class = 7 - seven>, fillcolor="#f0defb"] ;
23 -> 55 ;
56 [label=<x<SUB>635</SUB> &le; 56.5<br/>gini = 0.56<br/>samples = 5<br/>value = [0, 0, 3, 1, 1, 0, 0, 0, 0, 0]<br/>class = 2 - two>, fillcolor="#bdf29c"] ;
55 -> 56 ;
57 [label=<gini = 0.0<br/>samples = 3<br/>value = [0, 0, 3, 0, 0, 0, 0, 0, 0, 0]<br/>class = 2 - two>, fillcolor="#7be539"] ;
56 -> 57 ;
58 [label=<x<SUB>659</SUB> &le; 126.5<br/>gini = 0.5<br/>samples = 2<br/>value = [0, 0, 0, 1, 1, 0, 0, 0, 0, 0]<br/>class = 3 - three>, fillcolor="#ffffff"] ;
56 -> 58 ;
59 [label=<gini = 0.0<br/>samples = 1<br/>value = [0, 0, 0, 1, 0, 0, 0, 0, 0, 0]<br/>class = 3 - three>, fillcolor="#39e55e"] ;
58 -> 59 ;
60 [label=<gini = 0.0<br/>samples = 1<br/>value = [0, 0, 0, 0, 1, 0, 0, 0, 0, 0]<br/>class = 4 - four>, fillcolor="#39e5c5"] ;
58 -> 60 ;
61 [label=<gini = 0.0<br/>samples = 4<br/>value = [0, 0, 0, 0, 0, 0, 0, 4, 0, 0]<br/>class = 7 - seven>, fillcolor="#a339e5"] ;
55 -> 61 ;
62 [label=<x<SUB>461</SUB> &le; 206.0<br/>gini = 0.004<br/>samples = 3750<br/>value = [0, 0, 1, 2, 0, 0, 0, 3743, 0, 4]<br/>class = 7 - seven>, fillcolor="#a339e5"] ;
22 -> 62 ;
63 [label=<x<SUB>184</SUB> &le; 253.5<br/>gini = 0.003<br/>samples = 3725<br/>value = [0, 0, 0, 2, 0, 0, 0, 3719, 0, 4]<br/>class = 7 - seven>, fillcolor="#a339e5"] ;
62 -> 63 ;
64 [label=<x<SUB>407</SUB> &le; 254.5<br/>gini = 0.002<br/>samples = 3652<br/>value = [0, 0, 0, 1, 0, 0, 0, 3648, 0, 3]<br/>class = 7 - seven>, fillcolor="#a339e5"] ;
63 -> 64 ;
65 [label=<x<SUB>496</SUB> &le; 234.5<br/>gini = 0.002<br/>samples = 3617<br/>value = [0, 0, 0, 1, 0, 0, 0, 3614, 0, 2]<br/>class = 7 - seven>, fillcolor="#a339e5"] ;
64 -> 65 ;
66 [label=<x<SUB>264</SUB> &le; 0.5<br/>gini = 0.001<br/>samples = 3568<br/>value = [0, 0, 0, 0, 0, 0, 0, 3566, 0, 2]<br/>class = 7 - seven>, fillcolor="#a339e5"] ;
65 -> 66 ;
67 [label=<x<SUB>348</SUB> &le; 30.0<br/>gini = 0.039<br/>samples = 50<br/>value = [0, 0, 0, 0, 0, 0, 0, 49, 0, 1]<br/>class = 7 - seven>, fillcolor="#a53de6"] ;
66 -> 67 ;
68 [label=<gini = 0.0<br/>samples = 49<br/>value = [0, 0, 0, 0, 0, 0, 0, 49, 0, 0]<br/>class = 7 - seven>, fillcolor="#a339e5"] ;
67 -> 68 ;
69 [label=<gini = 0.0<br/>samples = 1<br/>value = [0, 0, 0, 0, 0, 0, 0, 0, 0, 1]<br/>class = 9 - nine>, fillcolor="#e53958"] ;
67 -> 69 ;
70 [label=<x<SUB>210</SUB> &le; 254.5<br/>gini = 0.001<br/>samples = 3518<br/>value = [0, 0, 0, 0, 0, 0, 0, 3517, 0, 1]<br/>class = 7 - seven>, fillcolor="#a339e5"] ;
66 -> 70 ;
71 [label=<gini = 0.0<br/>samples = 3382<br/>value = [0, 0, 0, 0, 0, 0, 0, 3382, 0, 0]<br/>class = 7 - seven>, fillcolor="#a339e5"] ;
70 -> 71 ;
72 [label=<x<SUB>240</SUB> &le; 112.0<br/>gini = 0.015<br/>samples = 136<br/>value = [0, 0, 0, 0, 0, 0, 0, 135, 0, 1]<br/>class = 7 - seven>, fillcolor="#a43ae5"] ;
70 -> 72 ;
73 [label=<gini = 0.0<br/>samples = 1<br/>value = [0, 0, 0, 0, 0, 0, 0, 0, 0, 1]<br/>class = 9 - nine>, fillcolor="#e53958"] ;
72 -> 73 ;
74 [label=<gini = 0.0<br/>samples = 135<br/>value = [0, 0, 0, 0, 0, 0, 0, 135, 0, 0]<br/>class = 7 - seven>, fillcolor="#a339e5"] ;
72 -> 74 ;
75 [label=<x<SUB>351</SUB> &le; 88.0<br/>gini = 0.04<br/>samples = 49<br/>value = [0, 0, 0, 1, 0, 0, 0, 48, 0, 0]<br/>class = 7 - seven>, fillcolor="#a53de6"] ;
65 -> 75 ;
76 [label=<gini = 0.0<br/>samples = 48<br/>value = [0, 0, 0, 0, 0, 0, 0, 48, 0, 0]<br/>class = 7 - seven>, fillcolor="#a339e5"] ;
75 -> 76 ;
77 [label=<gini = 0.0<br/>samples = 1<br/>value = [0, 0, 0, 1, 0, 0, 0, 0, 0, 0]<br/>class = 3 - three>, fillcolor="#39e55e"] ;
75 -> 77 ;
78 [label=<x<SUB>180</SUB> &le; 173.0<br/>gini = 0.056<br/>samples = 35<br/>value = [0, 0, 0, 0, 0, 0, 0, 34, 0, 1]<br/>class = 7 - seven>, fillcolor="#a63fe6"] ;
64 -> 78 ;
79 [label=<gini = 0.0<br/>samples = 34<br/>value = [0, 0, 0, 0, 0, 0, 0, 34, 0, 0]<br/>class = 7 - seven>, fillcolor="#a339e5"] ;
78 -> 79 ;
80 [label=<gini = 0.0<br/>samples = 1<br/>value = [0, 0, 0, 0, 0, 0, 0, 0, 0, 1]<br/>class = 9 - nine>, fillcolor="#e53958"] ;
78 -> 80 ;
81 [label=<x<SUB>295</SUB> &le; 245.5<br/>gini = 0.054<br/>samples = 73<br/>value = [0, 0, 0, 1, 0, 0, 0, 71, 0, 1]<br/>class = 7 - seven>, fillcolor="#a63ee6"] ;
63 -> 81 ;
82 [label=<x<SUB>463</SUB> &le; 4.0<br/>gini = 0.027<br/>samples = 72<br/>value = [0, 0, 0, 1, 0, 0, 0, 71, 0, 0]<br/>class = 7 - seven>, fillcolor="#a43ce5"] ;
81 -> 82 ;
83 [label=<gini = 0.0<br/>samples = 1<br/>value = [0, 0, 0, 1, 0, 0, 0, 0, 0, 0]<br/>class = 3 - three>, fillcolor="#39e55e"] ;
82 -> 83 ;
84 [label=<gini = 0.0<br/>samples = 71<br/>value = [0, 0, 0, 0, 0, 0, 0, 71, 0, 0]<br/>class = 7 - seven>, fillcolor="#a339e5"] ;
82 -> 84 ;
85 [label=<gini = 0.0<br/>samples = 1<br/>value = [0, 0, 0, 0, 0, 0, 0, 0, 0, 1]<br/>class = 9 - nine>, fillcolor="#e53958"] ;
81 -> 85 ;
86 [label=<x<SUB>688</SUB> &le; 196.5<br/>gini = 0.077<br/>samples = 25<br/>value = [0, 0, 1, 0, 0, 0, 0, 24, 0, 0]<br/>class = 7 - seven>, fillcolor="#a741e6"] ;
62 -> 86 ;
87 [label=<gini = 0.0<br/>samples = 24<br/>value = [0, 0, 0, 0, 0, 0, 0, 24, 0, 0]<br/>class = 7 - seven>, fillcolor="#a339e5"] ;
86 -> 87 ;
88 [label=<gini = 0.0<br/>samples = 1<br/>value = [0, 0, 1, 0, 0, 0, 0, 0, 0, 0]<br/>class = 2 - two>, fillcolor="#7be539"] ;
86 -> 88 ;
89 [label=<gini = 0.0<br/>samples = 1<br/>value = [0, 0, 1, 0, 0, 0, 0, 0, 0, 0]<br/>class = 2 - two>, fillcolor="#7be539"] ;
21 -> 89 ;
90 [label=<gini = 0.0<br/>samples = 1<br/>value = [0, 0, 1, 0, 0, 0, 0, 0, 0, 0]<br/>class = 2 - two>, fillcolor="#7be539"] ;
20 -> 90 ;
91 [label=<gini = 0.0<br/>samples = 1<br/>value = [0, 0, 0, 1, 0, 0, 0, 0, 0, 0]<br/>class = 3 - three>, fillcolor="#39e55e"] ;
19 -> 91 ;
92 [label=<x<SUB>182</SUB> &le; 162.0<br/>gini = 0.135<br/>samples = 436<br/>value = [0, 2, 1, 3, 1, 2, 0, 405, 0, 22]<br/>class = 7 - seven>, fillcolor="#aa48e7"] ;
18 -> 92 ;
93 [label=<x<SUB>297</SUB> &le; 0.5<br/>gini = 0.087<br/>samples = 401<br/>value = [0, 2, 1, 2, 1, 2, 0, 383, 0, 10]<br/>class = 7 - seven>, fillcolor="#a742e6"] ;
92 -> 93 ;
94 [label=<x<SUB>211</SUB> &le; 200.5<br/>gini = 0.635<br/>samples = 21<br/>value = [0, 2, 1, 1, 1, 1, 0, 12, 0, 3]<br/>class = 7 - seven>, fillcolor="#d19cf2"] ;
93 -> 94 ;
95 [label=<x<SUB>379</SUB> &le; 253.5<br/>gini = 0.255<br/>samples = 14<br/>value = [0, 0, 1, 0, 1, 0, 0, 12, 0, 0]<br/>class = 7 - seven>, fillcolor="#b157e9"] ;
94 -> 95 ;
96 [label=<gini = 0.0<br/>samples = 12<br/>value = [0, 0, 0, 0, 0, 0, 0, 12, 0, 0]<br/>class = 7 - seven>, fillcolor="#a339e5"] ;
95 -> 96 ;
97 [label=<x<SUB>515</SUB> &le; 33.0<br/>gini = 0.5<br/>samples = 2<br/>value = [0, 0, 1, 0, 1, 0, 0, 0, 0, 0]<br/>class = 2 - two>, fillcolor="#ffffff"] ;
95 -> 97 ;
98 [label=<gini = 0.0<br/>samples = 1<br/>value = [0, 0, 0, 0, 1, 0, 0, 0, 0, 0]<br/>class = 4 - four>, fillcolor="#39e5c5"] ;
97 -> 98 ;
99 [label=<gini = 0.0<br/>samples = 1<br/>value = [0, 0, 1, 0, 0, 0, 0, 0, 0, 0]<br/>class = 2 - two>, fillcolor="#7be539"] ;
97 -> 99 ;
100 [label=<x<SUB>241</SUB> &le; 140.5<br/>gini = 0.694<br/>samples = 7<br/>value = [0, 2, 0, 1, 0, 1, 0, 0, 0, 3]<br/>class = 9 - nine>, fillcolor="#fad7de"] ;
94 -> 100 ;
101 [label=<x<SUB>234</SUB> &le; 14.5<br/>gini = 0.625<br/>samples = 4<br/>value = [0, 2, 0, 1, 0, 1, 0, 0, 0, 0]<br/>class = 1 - one>, fillcolor="#f5f6bd"] ;
100 -> 101 ;
102 [label=<gini = 0.0<br/>samples = 2<br/>value = [0, 2, 0, 0, 0, 0, 0, 0, 0, 0]<br/>class = 1 - one>, fillcolor="#e2e539"] ;
101 -> 102 ;
103 [label=<x<SUB>213</SUB> &le; 246.0<br/>gini = 0.5<br/>samples = 2<br/>value = [0, 0, 0, 1, 0, 1, 0, 0, 0, 0]<br/>class = 3 - three>, fillcolor="#ffffff"] ;
101 -> 103 ;
104 [label=<gini = 0.0<br/>samples = 1<br/>value = [0, 0, 0, 0, 0, 1, 0, 0, 0, 0]<br/>class = 5 - five>, fillcolor="#399de5"] ;
103 -> 104 ;
105 [label=<gini = 0.0<br/>samples = 1<br/>value = [0, 0, 0, 1, 0, 0, 0, 0, 0, 0]<br/>class = 3 - three>, fillcolor="#39e55e"] ;
103 -> 105 ;
106 [label=<gini = 0.0<br/>samples = 3<br/>value = [0, 0, 0, 0, 0, 0, 0, 0, 0, 3]<br/>class = 9 - nine>, fillcolor="#e53958"] ;
100 -> 106 ;
107 [label=<x<SUB>157</SUB> &le; 1.0<br/>gini = 0.046<br/>samples = 380<br/>value = [0, 0, 0, 1, 0, 1, 0, 371, 0, 7]<br/>class = 7 - seven>, fillcolor="#a53ee6"] ;
93 -> 107 ;
108 [label=<x<SUB>733</SUB> &le; 136.0<br/>gini = 0.041<br/>samples = 379<br/>value = [0, 0, 0, 1, 0, 0, 0, 371, 0, 7]<br/>class = 7 - seven>, fillcolor="#a53de6"] ;
107 -> 108 ;
109 [label=<x<SUB>296</SUB> &le; 12.5<br/>gini = 0.036<br/>samples = 378<br/>value = [0, 0, 0, 1, 0, 0, 0, 371, 0, 6]<br/>class = 7 - seven>, fillcolor="#a53de5"] ;
108 -> 109 ;
110 [label=<x<SUB>410</SUB> &le; 235.0<br/>gini = 0.5<br/>samples = 2<br/>value = [0, 0, 0, 0, 0, 0, 0, 1, 0, 1]<br/>class = 7 - seven>, fillcolor="#ffffff"] ;
109 -> 110 ;
111 [label=<gini = 0.0<br/>samples = 1<br/>value = [0, 0, 0, 0, 0, 0, 0, 0, 0, 1]<br/>class = 9 - nine>, fillcolor="#e53958"] ;
110 -> 111 ;
112 [label=<gini = 0.0<br/>samples = 1<br/>value = [0, 0, 0, 0, 0, 0, 0, 1, 0, 0]<br/>class = 7 - seven>, fillcolor="#a339e5"] ;
110 -> 112 ;
113 [label=<x<SUB>172</SUB> &le; 145.0<br/>gini = 0.031<br/>samples = 376<br/>value = [0, 0, 0, 1, 0, 0, 0, 370, 0, 5]<br/>class = 7 - seven>, fillcolor="#a43ce5"] ;
109 -> 113 ;
114 [label=<x<SUB>209</SUB> &le; 254.5<br/>gini = 0.026<br/>samples = 373<br/>value = [0, 0, 0, 0, 0, 0, 0, 368, 0, 5]<br/>class = 7 - seven>, fillcolor="#a43ce5"] ;
113 -> 114 ;
115 [label=<x<SUB>376</SUB> &le; 9.5<br/>gini = 0.017<br/>samples = 360<br/>value = [0, 0, 0, 0, 0, 0, 0, 357, 0, 3]<br/>class = 7 - seven>, fillcolor="#a43be5"] ;
114 -> 115 ;
116 [label=<gini = 0.0<br/>samples = 327<br/>value = [0, 0, 0, 0, 0, 0, 0, 327, 0, 0]<br/>class = 7 - seven>, fillcolor="#a339e5"] ;
115 -> 116 ;
117 [label=<x<SUB>327</SUB> &le; 1.5<br/>gini = 0.165<br/>samples = 33<br/>value = [0, 0, 0, 0, 0, 0, 0, 30, 0, 3]<br/>class = 7 - seven>, fillcolor="#ac4de8"] ;
115 -> 117 ;
118 [label=<gini = 0.0<br/>samples = 2<br/>value = [0, 0, 0, 0, 0, 0, 0, 0, 0, 2]<br/>class = 9 - nine>, fillcolor="#e53958"] ;
117 -> 118 ;
119 [label=<x<SUB>207</SUB> &le; 179.0<br/>gini = 0.062<br/>samples = 31<br/>value = [0, 0, 0, 0, 0, 0, 0, 30, 0, 1]<br/>class = 7 - seven>, fillcolor="#a640e6"] ;
117 -> 119 ;
120 [label=<gini = 0.0<br/>samples = 30<br/>value = [0, 0, 0, 0, 0, 0, 0, 30, 0, 0]<br/>class = 7 - seven>, fillcolor="#a339e5"] ;
119 -> 120 ;
121 [label=<gini = 0.0<br/>samples = 1<br/>value = [0, 0, 0, 0, 0, 0, 0, 0, 0, 1]<br/>class = 9 - nine>, fillcolor="#e53958"] ;
119 -> 121 ;
122 [label=<x<SUB>296</SUB> &le; 249.5<br/>gini = 0.26<br/>samples = 13<br/>value = [0, 0, 0, 0, 0, 0, 0, 11, 0, 2]<br/>class = 7 - seven>, fillcolor="#b45dea"] ;
114 -> 122 ;
123 [label=<gini = 0.0<br/>samples = 2<br/>value = [0, 0, 0, 0, 0, 0, 0, 0, 0, 2]<br/>class = 9 - nine>, fillcolor="#e53958"] ;
122 -> 123 ;
124 [label=<gini = 0.0<br/>samples = 11<br/>value = [0, 0, 0, 0, 0, 0, 0, 11, 0, 0]<br/>class = 7 - seven>, fillcolor="#a339e5"] ;
122 -> 124 ;
125 [label=<x<SUB>298</SUB> &le; 39.0<br/>gini = 0.444<br/>samples = 3<br/>value = [0, 0, 0, 1, 0, 0, 0, 2, 0, 0]<br/>class = 7 - seven>, fillcolor="#d19cf2"] ;
113 -> 125 ;
126 [label=<gini = 0.0<br/>samples = 1<br/>value = [0, 0, 0, 1, 0, 0, 0, 0, 0, 0]<br/>class = 3 - three>, fillcolor="#39e55e"] ;
125 -> 126 ;
127 [label=<gini = 0.0<br/>samples = 2<br/>value = [0, 0, 0, 0, 0, 0, 0, 2, 0, 0]<br/>class = 7 - seven>, fillcolor="#a339e5"] ;
125 -> 127 ;
128 [label=<gini = 0.0<br/>samples = 1<br/>value = [0, 0, 0, 0, 0, 0, 0, 0, 0, 1]<br/>class = 9 - nine>, fillcolor="#e53958"] ;
108 -> 128 ;
129 [label=<gini = 0.0<br/>samples = 1<br/>value = [0, 0, 0, 0, 0, 1, 0, 0, 0, 0]<br/>class = 5 - five>, fillcolor="#399de5"] ;
107 -> 129 ;
130 [label=<x<SUB>321</SUB> &le; 38.0<br/>gini = 0.487<br/>samples = 35<br/>value = [0, 0, 0, 1, 0, 0, 0, 22, 0, 12]<br/>class = 7 - seven>, fillcolor="#d7a9f4"] ;
92 -> 130 ;
131 [label=<gini = 0.0<br/>samples = 18<br/>value = [0, 0, 0, 0, 0, 0, 0, 18, 0, 0]<br/>class = 7 - seven>, fillcolor="#a339e5"] ;
130 -> 131 ;
132 [label=<x<SUB>290</SUB> &le; 205.0<br/>gini = 0.443<br/>samples = 17<br/>value = [0, 0, 0, 1, 0, 0, 0, 4, 0, 12]<br/>class = 9 - nine>, fillcolor="#ef8598"] ;
130 -> 132 ;
133 [label=<gini = 0.0<br/>samples = 11<br/>value = [0, 0, 0, 0, 0, 0, 0, 0, 0, 11]<br/>class = 9 - nine>, fillcolor="#e53958"] ;
132 -> 133 ;
134 [label=<x<SUB>629</SUB> &le; 252.5<br/>gini = 0.5<br/>samples = 6<br/>value = [0, 0, 0, 1, 0, 0, 0, 4, 0, 1]<br/>class = 7 - seven>, fillcolor="#c888ef"] ;
132 -> 134 ;
135 [label=<gini = 0.0<br/>samples = 4<br/>value = [0, 0, 0, 0, 0, 0, 0, 4, 0, 0]<br/>class = 7 - seven>, fillcolor="#a339e5"] ;
134 -> 135 ;
136 [label=<x<SUB>210</SUB> &le; 252.5<br/>gini = 0.5<br/>samples = 2<br/>value = [0, 0, 0, 1, 0, 0, 0, 0, 0, 1]<br/>class = 3 - three>, fillcolor="#ffffff"] ;
134 -> 136 ;
137 [label=<gini = 0.0<br/>samples = 1<br/>value = [0, 0, 0, 0, 0, 0, 0, 0, 0, 1]<br/>class = 9 - nine>, fillcolor="#e53958"] ;
136 -> 137 ;
138 [label=<gini = 0.0<br/>samples = 1<br/>value = [0, 0, 0, 1, 0, 0, 0, 0, 0, 0]<br/>class = 3 - three>, fillcolor="#39e55e"] ;
136 -> 138 ;
139 [label=<x<SUB>213</SUB> &le; 31.0<br/>gini = 0.48<br/>samples = 10<br/>value = [0, 0, 4, 0, 0, 0, 0, 6, 0, 0]<br/>class = 7 - seven>, fillcolor="#e0bdf6"] ;
17 -> 139 ;
140 [label=<gini = 0.0<br/>samples = 4<br/>value = [0, 0, 4, 0, 0, 0, 0, 0, 0, 0]<br/>class = 2 - two>, fillcolor="#7be539"] ;
139 -> 140 ;
141 [label=<gini = 0.0<br/>samples = 6<br/>value = [0, 0, 0, 0, 0, 0, 0, 6, 0, 0]<br/>class = 7 - seven>, fillcolor="#a339e5"] ;
139 -> 141 ;
142 [label=<gini = 0.0<br/>samples = 2<br/>value = [0, 0, 2, 0, 0, 0, 0, 0, 0, 0]<br/>class = 2 - two>, fillcolor="#7be539"] ;
16 -> 142 ;
143 [label=<x<SUB>409</SUB> &le; 232.0<br/>gini = 0.611<br/>samples = 6<br/>value = [0, 0, 3, 1, 0, 0, 0, 2, 0, 0]<br/>class = 2 - two>, fillcolor="#def8ce"] ;
15 -> 143 ;
144 [label=<x<SUB>288</SUB> &le; 214.0<br/>gini = 0.444<br/>samples = 3<br/>value = [0, 0, 0, 1, 0, 0, 0, 2, 0, 0]<br/>class = 7 - seven>, fillcolor="#d19cf2"] ;
143 -> 144 ;
145 [label=<gini = 0.0<br/>samples = 2<br/>value = [0, 0, 0, 0, 0, 0, 0, 2, 0, 0]<br/>class = 7 - seven>, fillcolor="#a339e5"] ;
144 -> 145 ;
146 [label=<gini = 0.0<br/>samples = 1<br/>value = [0, 0, 0, 1, 0, 0, 0, 0, 0, 0]<br/>class = 3 - three>, fillcolor="#39e55e"] ;
144 -> 146 ;
147 [label=<gini = 0.0<br/>samples = 3<br/>value = [0, 0, 3, 0, 0, 0, 0, 0, 0, 0]<br/>class = 2 - two>, fillcolor="#7be539"] ;
143 -> 147 ;
148 [label=<x<SUB>626</SUB> &le; 122.0<br/>gini = 0.278<br/>samples = 6<br/>value = [0, 0, 5, 0, 0, 0, 0, 1, 0, 0]<br/>class = 2 - two>, fillcolor="#95ea61"] ;
14 -> 148 ;
149 [label=<gini = 0.0<br/>samples = 5<br/>value = [0, 0, 5, 0, 0, 0, 0, 0, 0, 0]<br/>class = 2 - two>, fillcolor="#7be539"] ;
148 -> 149 ;
150 [label=<gini = 0.0<br/>samples = 1<br/>value = [0, 0, 0, 0, 0, 0, 0, 1, 0, 0]<br/>class = 7 - seven>, fillcolor="#a339e5"] ;
148 -> 150 ;
151 [label=<x<SUB>607</SUB> &le; 16.0<br/>gini = 0.412<br/>samples = 126<br/>value = [0, 1, 6, 16, 2, 1, 0, 95, 1, 4]<br/>class = 7 - seven>, fillcolor="#bd71ec"] ;
13 -> 151 ;
152 [label=<x<SUB>375</SUB> &le; 217.0<br/>gini = 0.353<br/>samples = 119<br/>value = [0, 1, 6, 9, 2, 1, 0, 95, 1, 4]<br/>class = 7 - seven>, fillcolor="#b764eb"] ;
151 -> 152 ;
153 [label=<x<SUB>379</SUB> &le; 30.5<br/>gini = 0.284<br/>samples = 113<br/>value = [0, 1, 6, 9, 0, 0, 0, 95, 0, 2]<br/>class = 7 - seven>, fillcolor="#b35bea"] ;
152 -> 153 ;
154 [label=<x<SUB>467</SUB> &le; 2.5<br/>gini = 0.602<br/>samples = 30<br/>value = [0, 0, 4, 7, 0, 0, 0, 17, 0, 2]<br/>class = 7 - seven>, fillcolor="#d7a9f4"] ;
153 -> 154 ;
155 [label=<x<SUB>407</SUB> &le; 61.0<br/>gini = 0.48<br/>samples = 10<br/>value = [0, 0, 1, 7, 0, 0, 0, 1, 0, 1]<br/>class = 3 - three>, fillcolor="#7bee94"] ;
154 -> 155 ;
156 [label=<x<SUB>384</SUB> &le; 67.0<br/>gini = 0.5<br/>samples = 2<br/>value = [0, 0, 0, 0, 0, 0, 0, 1, 0, 1]<br/>class = 7 - seven>, fillcolor="#ffffff"] ;
155 -> 156 ;
157 [label=<gini = 0.0<br/>samples = 1<br/>value = [0, 0, 0, 0, 0, 0, 0, 0, 0, 1]<br/>class = 9 - nine>, fillcolor="#e53958"] ;
156 -> 157 ;
158 [label=<gini = 0.0<br/>samples = 1<br/>value = [0, 0, 0, 0, 0, 0, 0, 1, 0, 0]<br/>class = 7 - seven>, fillcolor="#a339e5"] ;
156 -> 158 ;
159 [label=<x<SUB>179</SUB> &le; 248.0<br/>gini = 0.219<br/>samples = 8<br/>value = [0, 0, 1, 7, 0, 0, 0, 0, 0, 0]<br/>class = 3 - three>, fillcolor="#55e975"] ;
155 -> 159 ;
160 [label=<gini = 0.0<br/>samples = 7<br/>value = [0, 0, 0, 7, 0, 0, 0, 0, 0, 0]<br/>class = 3 - three>, fillcolor="#39e55e"] ;
159 -> 160 ;
161 [label=<gini = 0.0<br/>samples = 1<br/>value = [0, 0, 1, 0, 0, 0, 0, 0, 0, 0]<br/>class = 2 - two>, fillcolor="#7be539"] ;
159 -> 161 ;
162 [label=<x<SUB>570</SUB> &le; 20.0<br/>gini = 0.335<br/>samples = 20<br/>value = [0, 0, 3, 0, 0, 0, 0, 16, 0, 1]<br/>class = 7 - seven>, fillcolor="#b968eb"] ;
154 -> 162 ;
163 [label=<x<SUB>434</SUB> &le; 11.5<br/>gini = 0.111<br/>samples = 17<br/>value = [0, 0, 0, 0, 0, 0, 0, 16, 0, 1]<br/>class = 7 - seven>, fillcolor="#a945e7"] ;
162 -> 163 ;
164 [label=<gini = 0.0<br/>samples = 1<br/>value = [0, 0, 0, 0, 0, 0, 0, 0, 0, 1]<br/>class = 9 - nine>, fillcolor="#e53958"] ;
163 -> 164 ;
165 [label=<gini = 0.0<br/>samples = 16<br/>value = [0, 0, 0, 0, 0, 0, 0, 16, 0, 0]<br/>class = 7 - seven>, fillcolor="#a339e5"] ;
163 -> 165 ;
166 [label=<gini = 0.0<br/>samples = 3<br/>value = [0, 0, 3, 0, 0, 0, 0, 0, 0, 0]<br/>class = 2 - two>, fillcolor="#7be539"] ;
162 -> 166 ;
167 [label=<x<SUB>157</SUB> &le; 125.5<br/>gini = 0.116<br/>samples = 83<br/>value = [0, 1, 2, 2, 0, 0, 0, 78, 0, 0]<br/>class = 7 - seven>, fillcolor="#a945e7"] ;
153 -> 167 ;
168 [label=<x<SUB>341</SUB> &le; 226.5<br/>gini = 0.094<br/>samples = 82<br/>value = [0, 0, 2, 2, 0, 0, 0, 78, 0, 0]<br/>class = 7 - seven>, fillcolor="#a843e6"] ;
167 -> 168 ;
169 [label=<x<SUB>606</SUB> &le; 227.5<br/>gini = 0.072<br/>samples = 81<br/>value = [0, 0, 1, 2, 0, 0, 0, 78, 0, 0]<br/>class = 7 - seven>, fillcolor="#a641e6"] ;
168 -> 169 ;
170 [label=<x<SUB>690</SUB> &le; 84.0<br/>gini = 0.049<br/>samples = 80<br/>value = [0, 0, 1, 1, 0, 0, 0, 78, 0, 0]<br/>class = 7 - seven>, fillcolor="#a53ee6"] ;
169 -> 170 ;
171 [label=<x<SUB>711</SUB> &le; 250.5<br/>gini = 0.025<br/>samples = 78<br/>value = [0, 0, 0, 1, 0, 0, 0, 77, 0, 0]<br/>class = 7 - seven>, fillcolor="#a43ce5"] ;
170 -> 171 ;
172 [label=<gini = 0.0<br/>samples = 75<br/>value = [0, 0, 0, 0, 0, 0, 0, 75, 0, 0]<br/>class = 7 - seven>, fillcolor="#a339e5"] ;
171 -> 172 ;
173 [label=<x<SUB>492</SUB> &le; 136.0<br/>gini = 0.444<br/>samples = 3<br/>value = [0, 0, 0, 1, 0, 0, 0, 2, 0, 0]<br/>class = 7 - seven>, fillcolor="#d19cf2"] ;
171 -> 173 ;
174 [label=<gini = 0.0<br/>samples = 1<br/>value = [0, 0, 0, 1, 0, 0, 0, 0, 0, 0]<br/>class = 3 - three>, fillcolor="#39e55e"] ;
173 -> 174 ;
175 [label=<gini = 0.0<br/>samples = 2<br/>value = [0, 0, 0, 0, 0, 0, 0, 2, 0, 0]<br/>class = 7 - seven>, fillcolor="#a339e5"] ;
173 -> 175 ;
176 [label=<x<SUB>599</SUB> &le; 93.5<br/>gini = 0.5<br/>samples = 2<br/>value = [0, 0, 1, 0, 0, 0, 0, 1, 0, 0]<br/>class = 2 - two>, fillcolor="#ffffff"] ;
170 -> 176 ;
177 [label=<gini = 0.0<br/>samples = 1<br/>value = [0, 0, 0, 0, 0, 0, 0, 1, 0, 0]<br/>class = 7 - seven>, fillcolor="#a339e5"] ;
176 -> 177 ;
178 [label=<gini = 0.0<br/>samples = 1<br/>value = [0, 0, 1, 0, 0, 0, 0, 0, 0, 0]<br/>class = 2 - two>, fillcolor="#7be539"] ;
176 -> 178 ;
179 [label=<gini = 0.0<br/>samples = 1<br/>value = [0, 0, 0, 1, 0, 0, 0, 0, 0, 0]<br/>class = 3 - three>, fillcolor="#39e55e"] ;
169 -> 179 ;
180 [label=<gini = 0.0<br/>samples = 1<br/>value = [0, 0, 1, 0, 0, 0, 0, 0, 0, 0]<br/>class = 2 - two>, fillcolor="#7be539"] ;
168 -> 180 ;
181 [label=<gini = 0.0<br/>samples = 1<br/>value = [0, 1, 0, 0, 0, 0, 0, 0, 0, 0]<br/>class = 1 - one>, fillcolor="#e2e539"] ;
167 -> 181 ;
182 [label=<x<SUB>346</SUB> &le; 150.0<br/>gini = 0.722<br/>samples = 6<br/>value = [0, 0, 0, 0, 2, 1, 0, 0, 1, 2]<br/>class = 4 - four>, fillcolor="#ffffff"] ;
152 -> 182 ;
183 [label=<x<SUB>491</SUB> &le; 122.5<br/>gini = 0.625<br/>samples = 4<br/>value = [0, 0, 0, 0, 0, 1, 0, 0, 1, 2]<br/>class = 9 - nine>, fillcolor="#f6bdc7"] ;
182 -> 183 ;
184 [label=<x<SUB>709</SUB> &le; 64.0<br/>gini = 0.5<br/>samples = 2<br/>value = [0, 0, 0, 0, 0, 1, 0, 0, 1, 0]<br/>class = 5 - five>, fillcolor="#ffffff"] ;
183 -> 184 ;
185 [label=<gini = 0.0<br/>samples = 1<br/>value = [0, 0, 0, 0, 0, 1, 0, 0, 0, 0]<br/>class = 5 - five>, fillcolor="#399de5"] ;
184 -> 185 ;
186 [label=<gini = 0.0<br/>samples = 1<br/>value = [0, 0, 0, 0, 0, 0, 0, 0, 1, 0]<br/>class = 8 - eight>, fillcolor="#e539c0"] ;
184 -> 186 ;
187 [label=<gini = 0.0<br/>samples = 2<br/>value = [0, 0, 0, 0, 0, 0, 0, 0, 0, 2]<br/>class = 9 - nine>, fillcolor="#e53958"] ;
183 -> 187 ;
188 [label=<gini = 0.0<br/>samples = 2<br/>value = [0, 0, 0, 0, 2, 0, 0, 0, 0, 0]<br/>class = 4 - four>, fillcolor="#39e5c5"] ;
182 -> 188 ;
189 [label=<gini = 0.0<br/>samples = 7<br/>value = [0, 0, 0, 7, 0, 0, 0, 0, 0, 0]<br/>class = 3 - three>, fillcolor="#39e55e"] ;
151 -> 189 ;
190 [label=<x<SUB>235</SUB> &le; 28.5<br/>gini = 0.612<br/>samples = 7<br/>value = [0, 0, 0, 0, 1, 0, 3, 0, 0, 3]<br/>class = 6 - six>, fillcolor="#ffffff"] ;
12 -> 190 ;
191 [label=<x<SUB>411</SUB> &le; 127.0<br/>gini = 0.375<br/>samples = 4<br/>value = [0, 0, 0, 0, 1, 0, 3, 0, 0, 0]<br/>class = 6 - six>, fillcolor="#7d7bee"] ;
190 -> 191 ;
192 [label=<gini = 0.0<br/>samples = 3<br/>value = [0, 0, 0, 0, 0, 0, 3, 0, 0, 0]<br/>class = 6 - six>, fillcolor="#3c39e5"] ;
191 -> 192 ;
193 [label=<gini = 0.0<br/>samples = 1<br/>value = [0, 0, 0, 0, 1, 0, 0, 0, 0, 0]<br/>class = 4 - four>, fillcolor="#39e5c5"] ;
191 -> 193 ;
194 [label=<gini = 0.0<br/>samples = 3<br/>value = [0, 0, 0, 0, 0, 0, 0, 0, 0, 3]<br/>class = 9 - nine>, fillcolor="#e53958"] ;
190 -> 194 ;
195 [label=<x<SUB>265</SUB> &le; 154.5<br/>gini = 0.403<br/>samples = 12<br/>value = [0, 0, 0, 0, 0, 1, 0, 2, 0, 9]<br/>class = 9 - nine>, fillcolor="#ed748a"] ;
11 -> 195 ;
196 [label=<gini = 0.0<br/>samples = 9<br/>value = [0, 0, 0, 0, 0, 0, 0, 0, 0, 9]<br/>class = 9 - nine>, fillcolor="#e53958"] ;
195 -> 196 ;
197 [label=<x<SUB>260</SUB> &le; 115.0<br/>gini = 0.444<br/>samples = 3<br/>value = [0, 0, 0, 0, 0, 1, 0, 2, 0, 0]<br/>class = 7 - seven>, fillcolor="#d19cf2"] ;
195 -> 197 ;
198 [label=<gini = 0.0<br/>samples = 1<br/>value = [0, 0, 0, 0, 0, 1, 0, 0, 0, 0]<br/>class = 5 - five>, fillcolor="#399de5"] ;
197 -> 198 ;
199 [label=<gini = 0.0<br/>samples = 2<br/>value = [0, 0, 0, 0, 0, 0, 0, 2, 0, 0]<br/>class = 7 - seven>, fillcolor="#a339e5"] ;
197 -> 199 ;
200 [label=<x<SUB>291</SUB> &le; 231.5<br/>gini = 0.708<br/>samples = 34<br/>value = [0, 0, 0, 1, 6, 2, 0, 14, 1, 10]<br/>class = 7 - seven>, fillcolor="#f0defb"] ;
10 -> 200 ;
201 [label=<x<SUB>209</SUB> &le; 63.5<br/>gini = 0.676<br/>samples = 21<br/>value = [0, 0, 0, 1, 6, 2, 0, 1, 1, 10]<br/>class = 9 - nine>, fillcolor="#f8cad2"] ;
200 -> 201 ;
202 [label=<x<SUB>491</SUB> &le; 51.5<br/>gini = 0.58<br/>samples = 10<br/>value = [0, 0, 0, 0, 6, 2, 0, 1, 1, 0]<br/>class = 4 - four>, fillcolor="#9cf2e2"] ;
201 -> 202 ;
203 [label=<x<SUB>237</SUB> &le; 22.5<br/>gini = 0.625<br/>samples = 4<br/>value = [0, 0, 0, 0, 0, 2, 0, 1, 1, 0]<br/>class = 5 - five>, fillcolor="#bddef6"] ;
202 -> 203 ;
204 [label=<x<SUB>356</SUB> &le; 70.5<br/>gini = 0.5<br/>samples = 2<br/>value = [0, 0, 0, 0, 0, 0, 0, 1, 1, 0]<br/>class = 7 - seven>, fillcolor="#ffffff"] ;
203 -> 204 ;
205 [label=<gini = 0.0<br/>samples = 1<br/>value = [0, 0, 0, 0, 0, 0, 0, 1, 0, 0]<br/>class = 7 - seven>, fillcolor="#a339e5"] ;
204 -> 205 ;
206 [label=<gini = 0.0<br/>samples = 1<br/>value = [0, 0, 0, 0, 0, 0, 0, 0, 1, 0]<br/>class = 8 - eight>, fillcolor="#e539c0"] ;
204 -> 206 ;
207 [label=<gini = 0.0<br/>samples = 2<br/>value = [0, 0, 0, 0, 0, 2, 0, 0, 0, 0]<br/>class = 5 - five>, fillcolor="#399de5"] ;
203 -> 207 ;
208 [label=<gini = 0.0<br/>samples = 6<br/>value = [0, 0, 0, 0, 6, 0, 0, 0, 0, 0]<br/>class = 4 - four>, fillcolor="#39e5c5"] ;
202 -> 208 ;
209 [label=<x<SUB>551</SUB> &le; 216.0<br/>gini = 0.165<br/>samples = 11<br/>value = [0, 0, 0, 1, 0, 0, 0, 0, 0, 10]<br/>class = 9 - nine>, fillcolor="#e84d69"] ;
201 -> 209 ;
210 [label=<gini = 0.0<br/>samples = 10<br/>value = [0, 0, 0, 0, 0, 0, 0, 0, 0, 10]<br/>class = 9 - nine>, fillcolor="#e53958"] ;
209 -> 210 ;
211 [label=<gini = 0.0<br/>samples = 1<br/>value = [0, 0, 0, 1, 0, 0, 0, 0, 0, 0]<br/>class = 3 - three>, fillcolor="#39e55e"] ;
209 -> 211 ;
212 [label=<gini = 0.0<br/>samples = 13<br/>value = [0, 0, 0, 0, 0, 0, 0, 13, 0, 0]<br/>class = 7 - seven>, fillcolor="#a339e5"] ;
200 -> 212 ;
213 [label=<x<SUB>685</SUB> &le; 113.0<br/>gini = 0.292<br/>samples = 12<br/>value = [0, 10, 0, 0, 1, 1, 0, 0, 0, 0]<br/>class = 1 - one>, fillcolor="#e7ea5d"] ;
9 -> 213 ;
214 [label=<gini = 0.0<br/>samples = 10<br/>value = [0, 10, 0, 0, 0, 0, 0, 0, 0, 0]<br/>class = 1 - one>, fillcolor="#e2e539"] ;
213 -> 214 ;
215 [label=<x<SUB>237</SUB> &le; 113.0<br/>gini = 0.5<br/>samples = 2<br/>value = [0, 0, 0, 0, 1, 1, 0, 0, 0, 0]<br/>class = 4 - four>, fillcolor="#ffffff"] ;
213 -> 215 ;
216 [label=<gini = 0.0<br/>samples = 1<br/>value = [0, 0, 0, 0, 1, 0, 0, 0, 0, 0]<br/>class = 4 - four>, fillcolor="#39e5c5"] ;
215 -> 216 ;
217 [label=<gini = 0.0<br/>samples = 1<br/>value = [0, 0, 0, 0, 0, 1, 0, 0, 0, 0]<br/>class = 5 - five>, fillcolor="#399de5"] ;
215 -> 217 ;
218 [label=<x<SUB>555</SUB> &le; 77.5<br/>gini = 0.647<br/>samples = 48<br/>value = [0, 0, 23, 3, 0, 4, 0, 16, 0, 2]<br/>class = 2 - two>, fillcolor="#e2f9d4"] ;
8 -> 218 ;
219 [label=<x<SUB>298</SUB> &le; 14.5<br/>gini = 0.683<br/>samples = 34<br/>value = [0, 0, 9, 3, 0, 4, 0, 16, 0, 2]<br/>class = 7 - seven>, fillcolor="#e5c8f8"] ;
218 -> 219 ;
220 [label=<x<SUB>491</SUB> &le; 7.0<br/>gini = 0.628<br/>samples = 11<br/>value = [0, 0, 5, 2, 0, 4, 0, 0, 0, 0]<br/>class = 2 - two>, fillcolor="#ecfbe3"] ;
219 -> 220 ;
221 [label=<x<SUB>514</SUB> &le; 1.0<br/>gini = 0.444<br/>samples = 6<br/>value = [0, 0, 0, 2, 0, 4, 0, 0, 0, 0]<br/>class = 5 - five>, fillcolor="#9ccef2"] ;
220 -> 221 ;
222 [label=<gini = 0.0<br/>samples = 4<br/>value = [0, 0, 0, 0, 0, 4, 0, 0, 0, 0]<br/>class = 5 - five>, fillcolor="#399de5"] ;
221 -> 222 ;
223 [label=<gini = 0.0<br/>samples = 2<br/>value = [0, 0, 0, 2, 0, 0, 0, 0, 0, 0]<br/>class = 3 - three>, fillcolor="#39e55e"] ;
221 -> 223 ;
224 [label=<gini = 0.0<br/>samples = 5<br/>value = [0, 0, 5, 0, 0, 0, 0, 0, 0, 0]<br/>class = 2 - two>, fillcolor="#7be539"] ;
220 -> 224 ;
225 [label=<x<SUB>611</SUB> &le; 2.0<br/>gini = 0.476<br/>samples = 23<br/>value = [0, 0, 4, 1, 0, 0, 0, 16, 0, 2]<br/>class = 7 - seven>, fillcolor="#c582ef"] ;
219 -> 225 ;
226 [label=<x<SUB>184</SUB> &le; 55.0<br/>gini = 0.277<br/>samples = 19<br/>value = [0, 0, 1, 0, 0, 0, 0, 16, 0, 2]<br/>class = 7 - seven>, fillcolor="#b35cea"] ;
225 -> 226 ;
227 [label=<x<SUB>528</SUB> &le; 146.0<br/>gini = 0.111<br/>samples = 17<br/>value = [0, 0, 1, 0, 0, 0, 0, 16, 0, 0]<br/>class = 7 - seven>, fillcolor="#a945e7"] ;
226 -> 227 ;
228 [label=<gini = 0.0<br/>samples = 16<br/>value = [0, 0, 0, 0, 0, 0, 0, 16, 0, 0]<br/>class = 7 - seven>, fillcolor="#a339e5"] ;
227 -> 228 ;
229 [label=<gini = 0.0<br/>samples = 1<br/>value = [0, 0, 1, 0, 0, 0, 0, 0, 0, 0]<br/>class = 2 - two>, fillcolor="#7be539"] ;
227 -> 229 ;
230 [label=<gini = 0.0<br/>samples = 2<br/>value = [0, 0, 0, 0, 0, 0, 0, 0, 0, 2]<br/>class = 9 - nine>, fillcolor="#e53958"] ;
226 -> 230 ;
231 [label=<x<SUB>262</SUB> &le; 199.0<br/>gini = 0.375<br/>samples = 4<br/>value = [0, 0, 3, 1, 0, 0, 0, 0, 0, 0]<br/>class = 2 - two>, fillcolor="#a7ee7b"] ;
225 -> 231 ;
232 [label=<gini = 0.0<br/>samples = 3<br/>value = [0, 0, 3, 0, 0, 0, 0, 0, 0, 0]<br/>class = 2 - two>, fillcolor="#7be539"] ;
231 -> 232 ;
233 [label=<gini = 0.0<br/>samples = 1<br/>value = [0, 0, 0, 1, 0, 0, 0, 0, 0, 0]<br/>class = 3 - three>, fillcolor="#39e55e"] ;
231 -> 233 ;
234 [label=<gini = 0.0<br/>samples = 14<br/>value = [0, 0, 14, 0, 0, 0, 0, 0, 0, 0]<br/>class = 2 - two>, fillcolor="#7be539"] ;
218 -> 234 ;
235 [label=<x<SUB>379</SUB> &le; 100.5<br/>gini = 0.674<br/>samples = 61<br/>value = [1, 33, 5, 0, 1, 6, 4, 5, 4, 2]<br/>class = 1 - one>, fillcolor="#f1f29e"] ;
7 -> 235 ;
236 [label=<x<SUB>431</SUB> &le; 158.5<br/>gini = 0.818<br/>samples = 22<br/>value = [1, 0, 5, 0, 1, 6, 4, 2, 1, 2]<br/>class = 5 - five>, fillcolor="#f3f9fd"] ;
235 -> 236 ;
237 [label=<x<SUB>572</SUB> &le; 158.5<br/>gini = 0.778<br/>samples = 18<br/>value = [1, 0, 5, 0, 1, 6, 0, 2, 1, 2]<br/>class = 5 - five>, fillcolor="#f0f7fd"] ;
236 -> 237 ;
238 [label=<x<SUB>632</SUB> &le; 113.5<br/>gini = 0.722<br/>samples = 13<br/>value = [1, 0, 0, 0, 1, 6, 0, 2, 1, 2]<br/>class = 5 - five>, fillcolor="#b7dbf6"] ;
237 -> 238 ;
239 [label=<x<SUB>261</SUB> &le; 195.5<br/>gini = 0.778<br/>samples = 6<br/>value = [1, 0, 0, 0, 1, 0, 0, 2, 1, 1]<br/>class = 7 - seven>, fillcolor="#edd7fa"] ;
238 -> 239 ;
240 [label=<x<SUB>489</SUB> &le; 37.5<br/>gini = 0.75<br/>samples = 4<br/>value = [1, 0, 0, 0, 1, 0, 0, 0, 1, 1]<br/>class = 0 - zero>, fillcolor="#ffffff"] ;
239 -> 240 ;
241 [label=<x<SUB>263</SUB> &le; 146.5<br/>gini = 0.5<br/>samples = 2<br/>value = [1, 0, 0, 0, 0, 0, 0, 0, 0, 1]<br/>class = 0 - zero>, fillcolor="#ffffff"] ;
240 -> 241 ;
242 [label=<gini = 0.0<br/>samples = 1<br/>value = [0, 0, 0, 0, 0, 0, 0, 0, 0, 1]<br/>class = 9 - nine>, fillcolor="#e53958"] ;
241 -> 242 ;
243 [label=<gini = 0.0<br/>samples = 1<br/>value = [1, 0, 0, 0, 0, 0, 0, 0, 0, 0]<br/>class = 0 - zero>, fillcolor="#e58139"] ;
241 -> 243 ;
244 [label=<x<SUB>264</SUB> &le; 21.0<br/>gini = 0.5<br/>samples = 2<br/>value = [0, 0, 0, 0, 1, 0, 0, 0, 1, 0]<br/>class = 4 - four>, fillcolor="#ffffff"] ;
240 -> 244 ;
245 [label=<gini = 0.0<br/>samples = 1<br/>value = [0, 0, 0, 0, 1, 0, 0, 0, 0, 0]<br/>class = 4 - four>, fillcolor="#39e5c5"] ;
244 -> 245 ;
246 [label=<gini = 0.0<br/>samples = 1<br/>value = [0, 0, 0, 0, 0, 0, 0, 0, 1, 0]<br/>class = 8 - eight>, fillcolor="#e539c0"] ;
244 -> 246 ;
247 [label=<gini = 0.0<br/>samples = 2<br/>value = [0, 0, 0, 0, 0, 0, 0, 2, 0, 0]<br/>class = 7 - seven>, fillcolor="#a339e5"] ;
239 -> 247 ;
248 [label=<x<SUB>238</SUB> &le; 9.5<br/>gini = 0.245<br/>samples = 7<br/>value = [0, 0, 0, 0, 0, 6, 0, 0, 0, 1]<br/>class = 5 - five>, fillcolor="#5aade9"] ;
238 -> 248 ;
249 [label=<gini = 0.0<br/>samples = 1<br/>value = [0, 0, 0, 0, 0, 0, 0, 0, 0, 1]<br/>class = 9 - nine>, fillcolor="#e53958"] ;
248 -> 249 ;
250 [label=<gini = 0.0<br/>samples = 6<br/>value = [0, 0, 0, 0, 0, 6, 0, 0, 0, 0]<br/>class = 5 - five>, fillcolor="#399de5"] ;
248 -> 250 ;
251 [label=<gini = 0.0<br/>samples = 5<br/>value = [0, 0, 5, 0, 0, 0, 0, 0, 0, 0]<br/>class = 2 - two>, fillcolor="#7be539"] ;
237 -> 251 ;
252 [label=<gini = 0.0<br/>samples = 4<br/>value = [0, 0, 0, 0, 0, 0, 4, 0, 0, 0]<br/>class = 6 - six>, fillcolor="#3c39e5"] ;
236 -> 252 ;
253 [label=<x<SUB>433</SUB> &le; 80.5<br/>gini = 0.272<br/>samples = 39<br/>value = [0, 33, 0, 0, 0, 0, 0, 3, 3, 0]<br/>class = 1 - one>, fillcolor="#e7e95a"] ;
235 -> 253 ;
254 [label=<x<SUB>514</SUB> &le; 27.0<br/>gini = 0.108<br/>samples = 35<br/>value = [0, 33, 0, 0, 0, 0, 0, 2, 0, 0]<br/>class = 1 - one>, fillcolor="#e4e745"] ;
253 -> 254 ;
255 [label=<gini = 0.0<br/>samples = 33<br/>value = [0, 33, 0, 0, 0, 0, 0, 0, 0, 0]<br/>class = 1 - one>, fillcolor="#e2e539"] ;
254 -> 255 ;
256 [label=<gini = 0.0<br/>samples = 2<br/>value = [0, 0, 0, 0, 0, 0, 0, 2, 0, 0]<br/>class = 7 - seven>, fillcolor="#a339e5"] ;
254 -> 256 ;
257 [label=<x<SUB>433</SUB> &le; 95.0<br/>gini = 0.375<br/>samples = 4<br/>value = [0, 0, 0, 0, 0, 0, 0, 1, 3, 0]<br/>class = 8 - eight>, fillcolor="#ee7bd5"] ;
253 -> 257 ;
258 [label=<gini = 0.0<br/>samples = 1<br/>value = [0, 0, 0, 0, 0, 0, 0, 1, 0, 0]<br/>class = 7 - seven>, fillcolor="#a339e5"] ;
257 -> 258 ;
259 [label=<gini = 0.0<br/>samples = 3<br/>value = [0, 0, 0, 0, 0, 0, 0, 0, 3, 0]<br/>class = 8 - eight>, fillcolor="#e539c0"] ;
257 -> 259 ;
260 [label=<x<SUB>408</SUB> &le; 15.0<br/>gini = 0.226<br/>samples = 89<br/>value = [78, 2, 0, 4, 0, 5, 0, 0, 0, 0]<br/>class = 0 - zero>, fillcolor="#e89253"] ;
6 -> 260 ;
261 [label=<x<SUB>580</SUB> &le; 253.5<br/>gini = 0.025<br/>samples = 78<br/>value = [77, 0, 0, 0, 0, 1, 0, 0, 0, 0]<br/>class = 0 - zero>, fillcolor="#e5833c"] ;
260 -> 261 ;
262 [label=<gini = 0.0<br/>samples = 77<br/>value = [77, 0, 0, 0, 0, 0, 0, 0, 0, 0]<br/>class = 0 - zero>, fillcolor="#e58139"] ;
261 -> 262 ;
263 [label=<gini = 0.0<br/>samples = 1<br/>value = [0, 0, 0, 0, 0, 1, 0, 0, 0, 0]<br/>class = 5 - five>, fillcolor="#399de5"] ;
261 -> 263 ;
264 [label=<x<SUB>318</SUB> &le; 2.5<br/>gini = 0.694<br/>samples = 11<br/>value = [1, 2, 0, 4, 0, 4, 0, 0, 0, 0]<br/>class = 3 - three>, fillcolor="#ffffff"] ;
260 -> 264 ;
265 [label=<gini = 0.0<br/>samples = 4<br/>value = [0, 0, 0, 4, 0, 0, 0, 0, 0, 0]<br/>class = 3 - three>, fillcolor="#39e55e"] ;
264 -> 265 ;
266 [label=<x<SUB>156</SUB> &le; 22.5<br/>gini = 0.571<br/>samples = 7<br/>value = [1, 2, 0, 0, 0, 4, 0, 0, 0, 0]<br/>class = 5 - five>, fillcolor="#b0d8f5"] ;
264 -> 266 ;
267 [label=<gini = 0.0<br/>samples = 4<br/>value = [0, 0, 0, 0, 0, 4, 0, 0, 0, 0]<br/>class = 5 - five>, fillcolor="#399de5"] ;
266 -> 267 ;
268 [label=<x<SUB>511</SUB> &le; 1.0<br/>gini = 0.444<br/>samples = 3<br/>value = [1, 2, 0, 0, 0, 0, 0, 0, 0, 0]<br/>class = 1 - one>, fillcolor="#f0f29c"] ;
266 -> 268 ;
269 [label=<gini = 0.0<br/>samples = 2<br/>value = [0, 2, 0, 0, 0, 0, 0, 0, 0, 0]<br/>class = 1 - one>, fillcolor="#e2e539"] ;
268 -> 269 ;
270 [label=<gini = 0.0<br/>samples = 1<br/>value = [1, 0, 0, 0, 0, 0, 0, 0, 0, 0]<br/>class = 0 - zero>, fillcolor="#e58139"] ;
268 -> 270 ;
271 [label=<x<SUB>571</SUB> &le; 5.0<br/>gini = 0.677<br/>samples = 489<br/>value = [52, 20, 261, 52, 1, 42, 12, 38, 6, 5]<br/>class = 2 - two>, fillcolor="#c0f3a0"] ;
5 -> 271 ;
272 [label=<x<SUB>426</SUB> &le; 10.0<br/>gini = 0.827<br/>samples = 177<br/>value = [47, 13, 20, 40, 1, 27, 8, 15, 1, 5]<br/>class = 0 - zero>, fillcolor="#fef9f5"] ;
271 -> 272 ;
273 [label=<x<SUB>654</SUB> &le; 7.5<br/>gini = 0.808<br/>samples = 128<br/>value = [2, 13, 19, 40, 1, 27, 6, 15, 1, 4]<br/>class = 3 - three>, fillcolor="#e6fcea"] ;
272 -> 273 ;
274 [label=<x<SUB>203</SUB> &le; 28.0<br/>gini = 0.789<br/>samples = 47<br/>value = [0, 8, 16, 1, 1, 2, 6, 10, 1, 2]<br/>class = 2 - two>, fillcolor="#eafbdf"] ;
273 -> 274 ;
275 [label=<x<SUB>236</SUB> &le; 239.0<br/>gini = 0.812<br/>samples = 31<br/>value = [0, 8, 3, 1, 1, 1, 6, 8, 1, 2]<br/>class = 1 - one>, fillcolor="#ffffff"] ;
274 -> 275 ;
276 [label=<x<SUB>180</SUB> &le; 205.5<br/>gini = 0.768<br/>samples = 25<br/>value = [0, 8, 3, 1, 1, 1, 0, 8, 1, 2]<br/>class = 1 - one>, fillcolor="#ffffff"] ;
275 -> 276 ;
277 [label=<x<SUB>466</SUB> &le; 1.5<br/>gini = 0.556<br/>samples = 13<br/>value = [0, 8, 3, 1, 0, 0, 0, 0, 0, 1]<br/>class = 1 - one>, fillcolor="#f0f29c"] ;
276 -> 277 ;
278 [label=<x<SUB>319</SUB> &le; 106.5<br/>gini = 0.198<br/>samples = 9<br/>value = [0, 8, 0, 0, 0, 0, 0, 0, 0, 1]<br/>class = 1 - one>, fillcolor="#e6e852"] ;
277 -> 278 ;
279 [label=<gini = 0.0<br/>samples = 8<br/>value = [0, 8, 0, 0, 0, 0, 0, 0, 0, 0]<br/>class = 1 - one>, fillcolor="#e2e539"] ;
278 -> 279 ;
280 [label=<gini = 0.0<br/>samples = 1<br/>value = [0, 0, 0, 0, 0, 0, 0, 0, 0, 1]<br/>class = 9 - nine>, fillcolor="#e53958"] ;
278 -> 280 ;
281 [label=<x<SUB>598</SUB> &le; 245.0<br/>gini = 0.375<br/>samples = 4<br/>value = [0, 0, 3, 1, 0, 0, 0, 0, 0, 0]<br/>class = 2 - two>, fillcolor="#a7ee7b"] ;
277 -> 281 ;
282 [label=<gini = 0.0<br/>samples = 3<br/>value = [0, 0, 3, 0, 0, 0, 0, 0, 0, 0]<br/>class = 2 - two>, fillcolor="#7be539"] ;
281 -> 282 ;
283 [label=<gini = 0.0<br/>samples = 1<br/>value = [0, 0, 0, 1, 0, 0, 0, 0, 0, 0]<br/>class = 3 - three>, fillcolor="#39e55e"] ;
281 -> 283 ;
284 [label=<x<SUB>574</SUB> &le; 170.5<br/>gini = 0.528<br/>samples = 12<br/>value = [0, 0, 0, 0, 1, 1, 0, 8, 1, 1]<br/>class = 7 - seven>, fillcolor="#c481ee"] ;
276 -> 284 ;
285 [label=<x<SUB>260</SUB> &le; 44.0<br/>gini = 0.75<br/>samples = 4<br/>value = [0, 0, 0, 0, 1, 1, 0, 0, 1, 1]<br/>class = 4 - four>, fillcolor="#ffffff"] ;
284 -> 285 ;
286 [label=<x<SUB>437</SUB> &le; 82.0<br/>gini = 0.667<br/>samples = 3<br/>value = [0, 0, 0, 0, 1, 0, 0, 0, 1, 1]<br/>class = 4 - four>, fillcolor="#ffffff"] ;
285 -> 286 ;
287 [label=<x<SUB>347</SUB> &le; 176.0<br/>gini = 0.5<br/>samples = 2<br/>value = [0, 0, 0, 0, 0, 0, 0, 0, 1, 1]<br/>class = 8 - eight>, fillcolor="#ffffff"] ;
286 -> 287 ;
288 [label=<gini = 0.0<br/>samples = 1<br/>value = [0, 0, 0, 0, 0, 0, 0, 0, 0, 1]<br/>class = 9 - nine>, fillcolor="#e53958"] ;
287 -> 288 ;
289 [label=<gini = 0.0<br/>samples = 1<br/>value = [0, 0, 0, 0, 0, 0, 0, 0, 1, 0]<br/>class = 8 - eight>, fillcolor="#e539c0"] ;
287 -> 289 ;
290 [label=<gini = 0.0<br/>samples = 1<br/>value = [0, 0, 0, 0, 1, 0, 0, 0, 0, 0]<br/>class = 4 - four>, fillcolor="#39e5c5"] ;
286 -> 290 ;
291 [label=<gini = 0.0<br/>samples = 1<br/>value = [0, 0, 0, 0, 0, 1, 0, 0, 0, 0]<br/>class = 5 - five>, fillcolor="#399de5"] ;
285 -> 291 ;
292 [label=<gini = 0.0<br/>samples = 8<br/>value = [0, 0, 0, 0, 0, 0, 0, 8, 0, 0]<br/>class = 7 - seven>, fillcolor="#a339e5"] ;
284 -> 292 ;
293 [label=<gini = 0.0<br/>samples = 6<br/>value = [0, 0, 0, 0, 0, 0, 6, 0, 0, 0]<br/>class = 6 - six>, fillcolor="#3c39e5"] ;
275 -> 293 ;
294 [label=<x<SUB>211</SUB> &le; 77.0<br/>gini = 0.32<br/>samples = 16<br/>value = [0, 0, 13, 0, 0, 1, 0, 2, 0, 0]<br/>class = 2 - two>, fillcolor="#97eb63"] ;
274 -> 294 ;
295 [label=<x<SUB>271</SUB> &le; 24.0<br/>gini = 0.5<br/>samples = 2<br/>value = [0, 0, 0, 0, 0, 1, 0, 1, 0, 0]<br/>class = 5 - five>, fillcolor="#ffffff"] ;
294 -> 295 ;
296 [label=<gini = 0.0<br/>samples = 1<br/>value = [0, 0, 0, 0, 0, 1, 0, 0, 0, 0]<br/>class = 5 - five>, fillcolor="#399de5"] ;
295 -> 296 ;
297 [label=<gini = 0.0<br/>samples = 1<br/>value = [0, 0, 0, 0, 0, 0, 0, 1, 0, 0]<br/>class = 7 - seven>, fillcolor="#a339e5"] ;
295 -> 297 ;
298 [label=<x<SUB>542</SUB> &le; 50.5<br/>gini = 0.133<br/>samples = 14<br/>value = [0, 0, 13, 0, 0, 0, 0, 1, 0, 0]<br/>class = 2 - two>, fillcolor="#85e748"] ;
294 -> 298 ;
299 [label=<gini = 0.0<br/>samples = 13<br/>value = [0, 0, 13, 0, 0, 0, 0, 0, 0, 0]<br/>class = 2 - two>, fillcolor="#7be539"] ;
298 -> 299 ;
300 [label=<gini = 0.0<br/>samples = 1<br/>value = [0, 0, 0, 0, 0, 0, 0, 1, 0, 0]<br/>class = 7 - seven>, fillcolor="#a339e5"] ;
298 -> 300 ;
301 [label=<x<SUB>241</SUB> &le; 3.5<br/>gini = 0.663<br/>samples = 81<br/>value = [2, 5, 3, 39, 0, 25, 0, 5, 0, 2]<br/>class = 3 - three>, fillcolor="#cef8d7"] ;
273 -> 301 ;
302 [label=<x<SUB>238</SUB> &le; 107.0<br/>gini = 0.588<br/>samples = 35<br/>value = [1, 1, 1, 10, 0, 20, 0, 1, 0, 1]<br/>class = 5 - five>, fillcolor="#b0d8f5"] ;
301 -> 302 ;
303 [label=<x<SUB>328</SUB> &le; 171.5<br/>gini = 0.37<br/>samples = 26<br/>value = [1, 0, 0, 5, 0, 20, 0, 0, 0, 0]<br/>class = 5 - five>, fillcolor="#72b9ec"] ;
302 -> 303 ;
304 [label=<x<SUB>150</SUB> &le; 244.5<br/>gini = 0.165<br/>samples = 22<br/>value = [0, 0, 0, 2, 0, 20, 0, 0, 0, 0]<br/>class = 5 - five>, fillcolor="#4da7e8"] ;
303 -> 304 ;
305 [label=<gini = 0.0<br/>samples = 20<br/>value = [0, 0, 0, 0, 0, 20, 0, 0, 0, 0]<br/>class = 5 - five>, fillcolor="#399de5"] ;
304 -> 305 ;
306 [label=<gini = 0.0<br/>samples = 2<br/>value = [0, 0, 0, 2, 0, 0, 0, 0, 0, 0]<br/>class = 3 - three>, fillcolor="#39e55e"] ;
304 -> 306 ;
307 [label=<x<SUB>327</SUB> &le; 113.0<br/>gini = 0.375<br/>samples = 4<br/>value = [1, 0, 0, 3, 0, 0, 0, 0, 0, 0]<br/>class = 3 - three>, fillcolor="#7bee94"] ;
303 -> 307 ;
308 [label=<gini = 0.0<br/>samples = 3<br/>value = [0, 0, 0, 3, 0, 0, 0, 0, 0, 0]<br/>class = 3 - three>, fillcolor="#39e55e"] ;
307 -> 308 ;
309 [label=<gini = 0.0<br/>samples = 1<br/>value = [1, 0, 0, 0, 0, 0, 0, 0, 0, 0]<br/>class = 0 - zero>, fillcolor="#e58139"] ;
307 -> 309 ;
310 [label=<x<SUB>468</SUB> &le; 114.0<br/>gini = 0.642<br/>samples = 9<br/>value = [0, 1, 1, 5, 0, 0, 0, 1, 0, 1]<br/>class = 3 - three>, fillcolor="#9cf2ae"] ;
302 -> 310 ;
311 [label=<x<SUB>688</SUB> &le; 126.5<br/>gini = 0.75<br/>samples = 4<br/>value = [0, 1, 1, 0, 0, 0, 0, 1, 0, 1]<br/>class = 1 - one>, fillcolor="#ffffff"] ;
310 -> 311 ;
312 [label=<x<SUB>180</SUB> &le; 148.5<br/>gini = 0.667<br/>samples = 3<br/>value = [0, 1, 1, 0, 0, 0, 0, 1, 0, 0]<br/>class = 1 - one>, fillcolor="#ffffff"] ;
311 -> 312 ;
313 [label=<gini = 0.0<br/>samples = 1<br/>value = [0, 1, 0, 0, 0, 0, 0, 0, 0, 0]<br/>class = 1 - one>, fillcolor="#e2e539"] ;
312 -> 313 ;
314 [label=<x<SUB>429</SUB> &le; 31.5<br/>gini = 0.5<br/>samples = 2<br/>value = [0, 0, 1, 0, 0, 0, 0, 1, 0, 0]<br/>class = 2 - two>, fillcolor="#ffffff"] ;
312 -> 314 ;
315 [label=<gini = 0.0<br/>samples = 1<br/>value = [0, 0, 1, 0, 0, 0, 0, 0, 0, 0]<br/>class = 2 - two>, fillcolor="#7be539"] ;
314 -> 315 ;
316 [label=<gini = 0.0<br/>samples = 1<br/>value = [0, 0, 0, 0, 0, 0, 0, 1, 0, 0]<br/>class = 7 - seven>, fillcolor="#a339e5"] ;
314 -> 316 ;
317 [label=<gini = 0.0<br/>samples = 1<br/>value = [0, 0, 0, 0, 0, 0, 0, 0, 0, 1]<br/>class = 9 - nine>, fillcolor="#e53958"] ;
311 -> 317 ;
318 [label=<gini = 0.0<br/>samples = 5<br/>value = [0, 0, 0, 5, 0, 0, 0, 0, 0, 0]<br/>class = 3 - three>, fillcolor="#39e55e"] ;
310 -> 318 ;
319 [label=<x<SUB>519</SUB> &le; 144.0<br/>gini = 0.573<br/>samples = 46<br/>value = [1, 4, 2, 29, 0, 5, 0, 4, 0, 1]<br/>class = 3 - three>, fillcolor="#8bf0a1"] ;
301 -> 319 ;
320 [label=<x<SUB>260</SUB> &le; 140.0<br/>gini = 0.337<br/>samples = 31<br/>value = [1, 0, 1, 25, 0, 3, 0, 0, 0, 1]<br/>class = 3 - three>, fillcolor="#63eb80"] ;
319 -> 320 ;
321 [label=<x<SUB>541</SUB> &le; 123.5<br/>gini = 0.145<br/>samples = 26<br/>value = [0, 0, 0, 24, 0, 1, 0, 0, 0, 1]<br/>class = 3 - three>, fillcolor="#49e76b"] ;
320 -> 321 ;
322 [label=<x<SUB>383</SUB> &le; 254.0<br/>gini = 0.077<br/>samples = 25<br/>value = [0, 0, 0, 24, 0, 1, 0, 0, 0, 0]<br/>class = 3 - three>, fillcolor="#41e665"] ;
321 -> 322 ;
323 [label=<gini = 0.0<br/>samples = 24<br/>value = [0, 0, 0, 24, 0, 0, 0, 0, 0, 0]<br/>class = 3 - three>, fillcolor="#39e55e"] ;
322 -> 323 ;
324 [label=<gini = 0.0<br/>samples = 1<br/>value = [0, 0, 0, 0, 0, 1, 0, 0, 0, 0]<br/>class = 5 - five>, fillcolor="#399de5"] ;
322 -> 324 ;
325 [label=<gini = 0.0<br/>samples = 1<br/>value = [0, 0, 0, 0, 0, 0, 0, 0, 0, 1]<br/>class = 9 - nine>, fillcolor="#e53958"] ;
321 -> 325 ;
326 [label=<x<SUB>351</SUB> &le; 123.5<br/>gini = 0.72<br/>samples = 5<br/>value = [1, 0, 1, 1, 0, 2, 0, 0, 0, 0]<br/>class = 5 - five>, fillcolor="#cee6f8"] ;
320 -> 326 ;
327 [label=<x<SUB>453</SUB> &le; 63.0<br/>gini = 0.667<br/>samples = 3<br/>value = [1, 0, 1, 1, 0, 0, 0, 0, 0, 0]<br/>class = 0 - zero>, fillcolor="#ffffff"] ;
326 -> 327 ;
328 [label=<x<SUB>260</SUB> &le; 254.5<br/>gini = 0.5<br/>samples = 2<br/>value = [0, 0, 1, 1, 0, 0, 0, 0, 0, 0]<br/>class = 2 - two>, fillcolor="#ffffff"] ;
327 -> 328 ;
329 [label=<gini = 0.0<br/>samples = 1<br/>value = [0, 0, 1, 0, 0, 0, 0, 0, 0, 0]<br/>class = 2 - two>, fillcolor="#7be539"] ;
328 -> 329 ;
330 [label=<gini = 0.0<br/>samples = 1<br/>value = [0, 0, 0, 1, 0, 0, 0, 0, 0, 0]<br/>class = 3 - three>, fillcolor="#39e55e"] ;
328 -> 330 ;
331 [label=<gini = 0.0<br/>samples = 1<br/>value = [1, 0, 0, 0, 0, 0, 0, 0, 0, 0]<br/>class = 0 - zero>, fillcolor="#e58139"] ;
327 -> 331 ;
332 [label=<gini = 0.0<br/>samples = 2<br/>value = [0, 0, 0, 0, 0, 2, 0, 0, 0, 0]<br/>class = 5 - five>, fillcolor="#399de5"] ;
326 -> 332 ;
333 [label=<x<SUB>545</SUB> &le; 46.5<br/>gini = 0.764<br/>samples = 15<br/>value = [0, 4, 1, 4, 0, 2, 0, 4, 0, 0]<br/>class = 1 - one>, fillcolor="#ffffff"] ;
319 -> 333 ;
334 [label=<x<SUB>598</SUB> &le; 27.5<br/>gini = 0.694<br/>samples = 11<br/>value = [0, 4, 1, 4, 0, 2, 0, 0, 0, 0]<br/>class = 1 - one>, fillcolor="#ffffff"] ;
333 -> 334 ;
335 [label=<x<SUB>179</SUB> &le; 38.0<br/>gini = 0.571<br/>samples = 7<br/>value = [0, 0, 1, 4, 0, 2, 0, 0, 0, 0]<br/>class = 3 - three>, fillcolor="#b0f5bf"] ;
334 -> 335 ;
336 [label=<x<SUB>633</SUB> &le; 88.5<br/>gini = 0.444<br/>samples = 3<br/>value = [0, 0, 1, 0, 0, 2, 0, 0, 0, 0]<br/>class = 5 - five>, fillcolor="#9ccef2"] ;
335 -> 336 ;
337 [label=<gini = 0.0<br/>samples = 1<br/>value = [0, 0, 1, 0, 0, 0, 0, 0, 0, 0]<br/>class = 2 - two>, fillcolor="#7be539"] ;
336 -> 337 ;
338 [label=<gini = 0.0<br/>samples = 2<br/>value = [0, 0, 0, 0, 0, 2, 0, 0, 0, 0]<br/>class = 5 - five>, fillcolor="#399de5"] ;
336 -> 338 ;
339 [label=<gini = 0.0<br/>samples = 4<br/>value = [0, 0, 0, 4, 0, 0, 0, 0, 0, 0]<br/>class = 3 - three>, fillcolor="#39e55e"] ;
335 -> 339 ;
340 [label=<gini = 0.0<br/>samples = 4<br/>value = [0, 4, 0, 0, 0, 0, 0, 0, 0, 0]<br/>class = 1 - one>, fillcolor="#e2e539"] ;
334 -> 340 ;
341 [label=<gini = 0.0<br/>samples = 4<br/>value = [0, 0, 0, 0, 0, 0, 0, 4, 0, 0]<br/>class = 7 - seven>, fillcolor="#a339e5"] ;
333 -> 341 ;
342 [label=<x<SUB>622</SUB> &le; 12.5<br/>gini = 0.154<br/>samples = 49<br/>value = [45, 0, 1, 0, 0, 0, 2, 0, 0, 1]<br/>class = 0 - zero>, fillcolor="#e78c4a"] ;
272 -> 342 ;
343 [label=<x<SUB>330</SUB> &le; 168.0<br/>gini = 0.625<br/>samples = 4<br/>value = [0, 0, 1, 0, 0, 0, 2, 0, 0, 1]<br/>class = 6 - six>, fillcolor="#bebdf6"] ;
342 -> 343 ;
344 [label=<x<SUB>206</SUB> &le; 93.5<br/>gini = 0.5<br/>samples = 2<br/>value = [0, 0, 1, 0, 0, 0, 0, 0, 0, 1]<br/>class = 2 - two>, fillcolor="#ffffff"] ;
343 -> 344 ;
345 [label=<gini = 0.0<br/>samples = 1<br/>value = [0, 0, 0, 0, 0, 0, 0, 0, 0, 1]<br/>class = 9 - nine>, fillcolor="#e53958"] ;
344 -> 345 ;
346 [label=<gini = 0.0<br/>samples = 1<br/>value = [0, 0, 1, 0, 0, 0, 0, 0, 0, 0]<br/>class = 2 - two>, fillcolor="#7be539"] ;
344 -> 346 ;
347 [label=<gini = 0.0<br/>samples = 2<br/>value = [0, 0, 0, 0, 0, 0, 2, 0, 0, 0]<br/>class = 6 - six>, fillcolor="#3c39e5"] ;
343 -> 347 ;
348 [label=<gini = 0.0<br/>samples = 45<br/>value = [45, 0, 0, 0, 0, 0, 0, 0, 0, 0]<br/>class = 0 - zero>, fillcolor="#e58139"] ;
342 -> 348 ;
349 [label=<x<SUB>347</SUB> &le; 7.0<br/>gini = 0.393<br/>samples = 312<br/>value = [5, 7, 241, 12, 0, 15, 4, 23, 5, 0]<br/>class = 2 - two>, fillcolor="#9beb6a"] ;
271 -> 349 ;
350 [label=<x<SUB>682</SUB> &le; 159.0<br/>gini = 0.234<br/>samples = 264<br/>value = [3, 3, 230, 6, 0, 1, 1, 20, 0, 0]<br/>class = 2 - two>, fillcolor="#8de955"] ;
349 -> 350 ;
351 [label=<x<SUB>565</SUB> &le; 93.0<br/>gini = 0.17<br/>samples = 233<br/>value = [3, 3, 212, 5, 0, 1, 1, 8, 0, 0]<br/>class = 2 - two>, fillcolor="#87e74b"] ;
350 -> 351 ;
352 [label=<x<SUB>596</SUB> &le; 211.0<br/>gini = 0.141<br/>samples = 229<br/>value = [0, 3, 212, 4, 0, 1, 1, 8, 0, 0]<br/>class = 2 - two>, fillcolor="#85e748"] ;
351 -> 352 ;
353 [label=<x<SUB>679</SUB> &le; 253.5<br/>gini = 0.119<br/>samples = 225<br/>value = [0, 0, 211, 4, 0, 1, 1, 8, 0, 0]<br/>class = 2 - two>, fillcolor="#84e746"] ;
352 -> 353 ;
354 [label=<x<SUB>321</SUB> &le; 53.5<br/>gini = 0.104<br/>samples = 223<br/>value = [0, 0, 211, 4, 0, 1, 1, 6, 0, 0]<br/>class = 2 - two>, fillcolor="#82e644"] ;
353 -> 354 ;
355 [label=<x<SUB>349</SUB> &le; 29.5<br/>gini = 0.079<br/>samples = 220<br/>value = [0, 0, 211, 3, 0, 0, 0, 6, 0, 0]<br/>class = 2 - two>, fillcolor="#81e641"] ;
354 -> 355 ;
356 [label=<x<SUB>400</SUB> &le; 60.0<br/>gini = 0.071<br/>samples = 219<br/>value = [0, 0, 211, 2, 0, 0, 0, 6, 0, 0]<br/>class = 2 - two>, fillcolor="#80e640"] ;
355 -> 356 ;
357 [label=<x<SUB>677</SUB> &le; 194.5<br/>gini = 0.063<br/>samples = 218<br/>value = [0, 0, 211, 2, 0, 0, 0, 5, 0, 0]<br/>class = 2 - two>, fillcolor="#7fe640"] ;
356 -> 357 ;
358 [label=<x<SUB>683</SUB> &le; 163.0<br/>gini = 0.054<br/>samples = 217<br/>value = [0, 0, 211, 2, 0, 0, 0, 4, 0, 0]<br/>class = 2 - two>, fillcolor="#7fe63f"] ;
357 -> 358 ;
359 [label=<x<SUB>294</SUB> &le; 237.0<br/>gini = 0.029<br/>samples = 204<br/>value = [0, 0, 201, 2, 0, 0, 0, 1, 0, 0]<br/>class = 2 - two>, fillcolor="#7de53c"] ;
358 -> 359 ;
360 [label=<x<SUB>153</SUB> &le; 7.5<br/>gini = 0.02<br/>samples = 202<br/>value = [0, 0, 200, 1, 0, 0, 0, 1, 0, 0]<br/>class = 2 - two>, fillcolor="#7ce53b"] ;
359 -> 360 ;
361 [label=<x<SUB>269</SUB> &le; 201.5<br/>gini = 0.444<br/>samples = 3<br/>value = [0, 0, 2, 1, 0, 0, 0, 0, 0, 0]<br/>class = 2 - two>, fillcolor="#bdf29c"] ;
360 -> 361 ;
362 [label=<gini = 0.0<br/>samples = 2<br/>value = [0, 0, 2, 0, 0, 0, 0, 0, 0, 0]<br/>class = 2 - two>, fillcolor="#7be539"] ;
361 -> 362 ;
363 [label=<gini = 0.0<br/>samples = 1<br/>value = [0, 0, 0, 1, 0, 0, 0, 0, 0, 0]<br/>class = 3 - three>, fillcolor="#39e55e"] ;
361 -> 363 ;
364 [label=<x<SUB>682</SUB> &le; 110.0<br/>gini = 0.01<br/>samples = 199<br/>value = [0, 0, 198, 0, 0, 0, 0, 1, 0, 0]<br/>class = 2 - two>, fillcolor="#7ce53a"] ;
360 -> 364 ;
365 [label=<gini = 0.0<br/>samples = 193<br/>value = [0, 0, 193, 0, 0, 0, 0, 0, 0, 0]<br/>class = 2 - two>, fillcolor="#7be539"] ;
364 -> 365 ;
366 [label=<x<SUB>180</SUB> &le; 221.0<br/>gini = 0.278<br/>samples = 6<br/>value = [0, 0, 5, 0, 0, 0, 0, 1, 0, 0]<br/>class = 2 - two>, fillcolor="#95ea61"] ;
364 -> 366 ;
367 [label=<gini = 0.0<br/>samples = 1<br/>value = [0, 0, 0, 0, 0, 0, 0, 1, 0, 0]<br/>class = 7 - seven>, fillcolor="#a339e5"] ;
366 -> 367 ;
368 [label=<gini = 0.0<br/>samples = 5<br/>value = [0, 0, 5, 0, 0, 0, 0, 0, 0, 0]<br/>class = 2 - two>, fillcolor="#7be539"] ;
366 -> 368 ;
369 [label=<x<SUB>605</SUB> &le; 105.0<br/>gini = 0.5<br/>samples = 2<br/>value = [0, 0, 1, 1, 0, 0, 0, 0, 0, 0]<br/>class = 2 - two>, fillcolor="#ffffff"] ;
359 -> 369 ;
370 [label=<gini = 0.0<br/>samples = 1<br/>value = [0, 0, 0, 1, 0, 0, 0, 0, 0, 0]<br/>class = 3 - three>, fillcolor="#39e55e"] ;
369 -> 370 ;
371 [label=<gini = 0.0<br/>samples = 1<br/>value = [0, 0, 1, 0, 0, 0, 0, 0, 0, 0]<br/>class = 2 - two>, fillcolor="#7be539"] ;
369 -> 371 ;
372 [label=<x<SUB>295</SUB> &le; 21.5<br/>gini = 0.355<br/>samples = 13<br/>value = [0, 0, 10, 0, 0, 0, 0, 3, 0, 0]<br/>class = 2 - two>, fillcolor="#a3ed74"] ;
358 -> 372 ;
373 [label=<gini = 0.0<br/>samples = 10<br/>value = [0, 0, 10, 0, 0, 0, 0, 0, 0, 0]<br/>class = 2 - two>, fillcolor="#7be539"] ;
372 -> 373 ;
374 [label=<gini = 0.0<br/>samples = 3<br/>value = [0, 0, 0, 0, 0, 0, 0, 3, 0, 0]<br/>class = 7 - seven>, fillcolor="#a339e5"] ;
372 -> 374 ;
375 [label=<gini = 0.0<br/>samples = 1<br/>value = [0, 0, 0, 0, 0, 0, 0, 1, 0, 0]<br/>class = 7 - seven>, fillcolor="#a339e5"] ;
357 -> 375 ;
376 [label=<gini = 0.0<br/>samples = 1<br/>value = [0, 0, 0, 0, 0, 0, 0, 1, 0, 0]<br/>class = 7 - seven>, fillcolor="#a339e5"] ;
356 -> 376 ;
377 [label=<gini = 0.0<br/>samples = 1<br/>value = [0, 0, 0, 1, 0, 0, 0, 0, 0, 0]<br/>class = 3 - three>, fillcolor="#39e55e"] ;
355 -> 377 ;
378 [label=<x<SUB>551</SUB> &le; 2.0<br/>gini = 0.667<br/>samples = 3<br/>value = [0, 0, 0, 1, 0, 1, 1, 0, 0, 0]<br/>class = 3 - three>, fillcolor="#ffffff"] ;
354 -> 378 ;
379 [label=<gini = 0.0<br/>samples = 1<br/>value = [0, 0, 0, 0, 0, 0, 1, 0, 0, 0]<br/>class = 6 - six>, fillcolor="#3c39e5"] ;
378 -> 379 ;
380 [label=<x<SUB>266</SUB> &le; 132.5<br/>gini = 0.5<br/>samples = 2<br/>value = [0, 0, 0, 1, 0, 1, 0, 0, 0, 0]<br/>class = 3 - three>, fillcolor="#ffffff"] ;
378 -> 380 ;
381 [label=<gini = 0.0<br/>samples = 1<br/>value = [0, 0, 0, 0, 0, 1, 0, 0, 0, 0]<br/>class = 5 - five>, fillcolor="#399de5"] ;
380 -> 381 ;
382 [label=<gini = 0.0<br/>samples = 1<br/>value = [0, 0, 0, 1, 0, 0, 0, 0, 0, 0]<br/>class = 3 - three>, fillcolor="#39e55e"] ;
380 -> 382 ;
383 [label=<gini = 0.0<br/>samples = 2<br/>value = [0, 0, 0, 0, 0, 0, 0, 2, 0, 0]<br/>class = 7 - seven>, fillcolor="#a339e5"] ;
353 -> 383 ;
384 [label=<x<SUB>463</SUB> &le; 250.5<br/>gini = 0.375<br/>samples = 4<br/>value = [0, 3, 1, 0, 0, 0, 0, 0, 0, 0]<br/>class = 1 - one>, fillcolor="#ecee7b"] ;
352 -> 384 ;
385 [label=<gini = 0.0<br/>samples = 1<br/>value = [0, 0, 1, 0, 0, 0, 0, 0, 0, 0]<br/>class = 2 - two>, fillcolor="#7be539"] ;
384 -> 385 ;
386 [label=<gini = 0.0<br/>samples = 3<br/>value = [0, 3, 0, 0, 0, 0, 0, 0, 0, 0]<br/>class = 1 - one>, fillcolor="#e2e539"] ;
384 -> 386 ;
387 [label=<x<SUB>262</SUB> &le; 121.0<br/>gini = 0.375<br/>samples = 4<br/>value = [3, 0, 0, 1, 0, 0, 0, 0, 0, 0]<br/>class = 0 - zero>, fillcolor="#eeab7b"] ;
351 -> 387 ;
388 [label=<gini = 0.0<br/>samples = 1<br/>value = [0, 0, 0, 1, 0, 0, 0, 0, 0, 0]<br/>class = 3 - three>, fillcolor="#39e55e"] ;
387 -> 388 ;
389 [label=<gini = 0.0<br/>samples = 3<br/>value = [3, 0, 0, 0, 0, 0, 0, 0, 0, 0]<br/>class = 0 - zero>, fillcolor="#e58139"] ;
387 -> 389 ;
390 [label=<x<SUB>577</SUB> &le; 52.0<br/>gini = 0.512<br/>samples = 31<br/>value = [0, 0, 18, 1, 0, 0, 0, 12, 0, 0]<br/>class = 2 - two>, fillcolor="#d5f7c0"] ;
350 -> 390 ;
391 [label=<x<SUB>570</SUB> &le; 171.5<br/>gini = 0.375<br/>samples = 16<br/>value = [0, 0, 4, 0, 0, 0, 0, 12, 0, 0]<br/>class = 7 - seven>, fillcolor="#c27bee"] ;
390 -> 391 ;
392 [label=<gini = 0.0<br/>samples = 12<br/>value = [0, 0, 0, 0, 0, 0, 0, 12, 0, 0]<br/>class = 7 - seven>, fillcolor="#a339e5"] ;
391 -> 392 ;
393 [label=<gini = 0.0<br/>samples = 4<br/>value = [0, 0, 4, 0, 0, 0, 0, 0, 0, 0]<br/>class = 2 - two>, fillcolor="#7be539"] ;
391 -> 393 ;
394 [label=<x<SUB>545</SUB> &le; 13.0<br/>gini = 0.124<br/>samples = 15<br/>value = [0, 0, 14, 1, 0, 0, 0, 0, 0, 0]<br/>class = 2 - two>, fillcolor="#84e747"] ;
390 -> 394 ;
395 [label=<gini = 0.0<br/>samples = 1<br/>value = [0, 0, 0, 1, 0, 0, 0, 0, 0, 0]<br/>class = 3 - three>, fillcolor="#39e55e"] ;
394 -> 395 ;
396 [label=<gini = 0.0<br/>samples = 14<br/>value = [0, 0, 14, 0, 0, 0, 0, 0, 0, 0]<br/>class = 2 - two>, fillcolor="#7be539"] ;
394 -> 396 ;
397 [label=<x<SUB>237</SUB> &le; 1.5<br/>gini = 0.819<br/>samples = 48<br/>value = [2, 4, 11, 6, 0, 14, 3, 3, 5, 0]<br/>class = 5 - five>, fillcolor="#eff7fd"] ;
349 -> 397 ;
398 [label=<x<SUB>239</SUB> &le; 35.0<br/>gini = 0.54<br/>samples = 20<br/>value = [1, 0, 0, 3, 0, 13, 0, 1, 2, 0]<br/>class = 5 - five>, fillcolor="#8bc5f0"] ;
397 -> 398 ;
399 [label=<x<SUB>520</SUB> &le; 146.5<br/>gini = 0.133<br/>samples = 14<br/>value = [1, 0, 0, 0, 0, 13, 0, 0, 0, 0]<br/>class = 5 - five>, fillcolor="#48a5e7"] ;
398 -> 399 ;
400 [label=<gini = 0.0<br/>samples = 13<br/>value = [0, 0, 0, 0, 0, 13, 0, 0, 0, 0]<br/>class = 5 - five>, fillcolor="#399de5"] ;
399 -> 400 ;
401 [label=<gini = 0.0<br/>samples = 1<br/>value = [1, 0, 0, 0, 0, 0, 0, 0, 0, 0]<br/>class = 0 - zero>, fillcolor="#e58139"] ;
399 -> 401 ;
402 [label=<x<SUB>321</SUB> &le; 221.0<br/>gini = 0.611<br/>samples = 6<br/>value = [0, 0, 0, 3, 0, 0, 0, 1, 2, 0]<br/>class = 3 - three>, fillcolor="#cef8d7"] ;
398 -> 402 ;
403 [label=<x<SUB>687</SUB> &le; 66.5<br/>gini = 0.444<br/>samples = 3<br/>value = [0, 0, 0, 0, 0, 0, 0, 1, 2, 0]<br/>class = 8 - eight>, fillcolor="#f29ce0"] ;
402 -> 403 ;
404 [label=<gini = 0.0<br/>samples = 1<br/>value = [0, 0, 0, 0, 0, 0, 0, 1, 0, 0]<br/>class = 7 - seven>, fillcolor="#a339e5"] ;
403 -> 404 ;
405 [label=<gini = 0.0<br/>samples = 2<br/>value = [0, 0, 0, 0, 0, 0, 0, 0, 2, 0]<br/>class = 8 - eight>, fillcolor="#e539c0"] ;
403 -> 405 ;
406 [label=<gini = 0.0<br/>samples = 3<br/>value = [0, 0, 0, 3, 0, 0, 0, 0, 0, 0]<br/>class = 3 - three>, fillcolor="#39e55e"] ;
402 -> 406 ;
407 [label=<x<SUB>235</SUB> &le; 189.5<br/>gini = 0.783<br/>samples = 28<br/>value = [1, 4, 11, 3, 0, 1, 3, 2, 3, 0]<br/>class = 2 - two>, fillcolor="#d8f7c5"] ;
397 -> 407 ;
408 [label=<x<SUB>346</SUB> &le; 1.0<br/>gini = 0.837<br/>samples = 14<br/>value = [1, 3, 0, 2, 0, 1, 3, 2, 2, 0]<br/>class = 1 - one>, fillcolor="#ffffff"] ;
407 -> 408 ;
409 [label=<gini = 0.0<br/>samples = 3<br/>value = [0, 0, 0, 0, 0, 0, 3, 0, 0, 0]<br/>class = 6 - six>, fillcolor="#3c39e5"] ;
408 -> 409 ;
410 [label=<x<SUB>99</SUB> &le; 1.0<br/>gini = 0.81<br/>samples = 11<br/>value = [1, 3, 0, 2, 0, 1, 0, 2, 2, 0]<br/>class = 1 - one>, fillcolor="#fcfce9"] ;
408 -> 410 ;
411 [label=<x<SUB>463</SUB> &le; 192.5<br/>gini = 0.781<br/>samples = 8<br/>value = [1, 0, 0, 2, 0, 1, 0, 2, 2, 0]<br/>class = 3 - three>, fillcolor="#ffffff"] ;
410 -> 411 ;
412 [label=<x<SUB>348</SUB> &le; 13.5<br/>gini = 0.722<br/>samples = 6<br/>value = [1, 0, 0, 2, 0, 1, 0, 0, 2, 0]<br/>class = 3 - three>, fillcolor="#ffffff"] ;
411 -> 412 ;
413 [label=<x<SUB>347</SUB> &le; 124.0<br/>gini = 0.625<br/>samples = 4<br/>value = [1, 0, 0, 0, 0, 1, 0, 0, 2, 0]<br/>class = 8 - eight>, fillcolor="#f6bdea"] ;
412 -> 413 ;
414 [label=<x<SUB>472</SUB> &le; 6.0<br/>gini = 0.5<br/>samples = 2<br/>value = [1, 0, 0, 0, 0, 1, 0, 0, 0, 0]<br/>class = 0 - zero>, fillcolor="#ffffff"] ;
413 -> 414 ;
415 [label=<gini = 0.0<br/>samples = 1<br/>value = [0, 0, 0, 0, 0, 1, 0, 0, 0, 0]<br/>class = 5 - five>, fillcolor="#399de5"] ;
414 -> 415 ;
416 [label=<gini = 0.0<br/>samples = 1<br/>value = [1, 0, 0, 0, 0, 0, 0, 0, 0, 0]<br/>class = 0 - zero>, fillcolor="#e58139"] ;
414 -> 416 ;
417 [label=<gini = 0.0<br/>samples = 2<br/>value = [0, 0, 0, 0, 0, 0, 0, 0, 2, 0]<br/>class = 8 - eight>, fillcolor="#e539c0"] ;
413 -> 417 ;
418 [label=<gini = 0.0<br/>samples = 2<br/>value = [0, 0, 0, 2, 0, 0, 0, 0, 0, 0]<br/>class = 3 - three>, fillcolor="#39e55e"] ;
412 -> 418 ;
419 [label=<gini = 0.0<br/>samples = 2<br/>value = [0, 0, 0, 0, 0, 0, 0, 2, 0, 0]<br/>class = 7 - seven>, fillcolor="#a339e5"] ;
411 -> 419 ;
420 [label=<gini = 0.0<br/>samples = 3<br/>value = [0, 3, 0, 0, 0, 0, 0, 0, 0, 0]<br/>class = 1 - one>, fillcolor="#e2e539"] ;
410 -> 420 ;
421 [label=<x<SUB>319</SUB> &le; 129.0<br/>gini = 0.367<br/>samples = 14<br/>value = [0, 1, 11, 1, 0, 0, 0, 0, 1, 0]<br/>class = 2 - two>, fillcolor="#99eb67"] ;
407 -> 421 ;
422 [label=<x<SUB>210</SUB> &le; 101.5<br/>gini = 0.667<br/>samples = 3<br/>value = [0, 1, 0, 1, 0, 0, 0, 0, 1, 0]<br/>class = 1 - one>, fillcolor="#ffffff"] ;
421 -> 422 ;
423 [label=<gini = 0.0<br/>samples = 1<br/>value = [0, 0, 0, 0, 0, 0, 0, 0, 1, 0]<br/>class = 8 - eight>, fillcolor="#e539c0"] ;
422 -> 423 ;
424 [label=<x<SUB>571</SUB> &le; 137.5<br/>gini = 0.5<br/>samples = 2<br/>value = [0, 1, 0, 1, 0, 0, 0, 0, 0, 0]<br/>class = 1 - one>, fillcolor="#ffffff"] ;
422 -> 424 ;
425 [label=<gini = 0.0<br/>samples = 1<br/>value = [0, 0, 0, 1, 0, 0, 0, 0, 0, 0]<br/>class = 3 - three>, fillcolor="#39e55e"] ;
424 -> 425 ;
426 [label=<gini = 0.0<br/>samples = 1<br/>value = [0, 1, 0, 0, 0, 0, 0, 0, 0, 0]<br/>class = 1 - one>, fillcolor="#e2e539"] ;
424 -> 426 ;
427 [label=<gini = 0.0<br/>samples = 11<br/>value = [0, 0, 11, 0, 0, 0, 0, 0, 0, 0]<br/>class = 2 - two>, fillcolor="#7be539"] ;
421 -> 427 ;
428 [label=<x<SUB>211</SUB> &le; 53.5<br/>gini = 0.787<br/>samples = 1282<br/>value = [116, 0, 83, 6, 322, 28, 147, 148, 5, 427]<br/>class = 9 - nine>, fillcolor="#fce9ed"] ;
4 -> 428 ;
429 [label=<x<SUB>487</SUB> &le; 135.5<br/>gini = 0.722<br/>samples = 622<br/>value = [32, 0, 46, 0, 280, 15, 139, 68, 1, 41]<br/>class = 4 - four>, fillcolor="#c5f7ee"] ;
428 -> 429 ;
430 [label=<x<SUB>514</SUB> &le; 0.5<br/>gini = 0.731<br/>samples = 268<br/>value = [27, 0, 12, 0, 28, 9, 120, 53, 0, 19]<br/>class = 6 - six>, fillcolor="#c2c1f7"] ;
429 -> 430 ;
431 [label=<x<SUB>487</SUB> &le; 6.5<br/>gini = 0.461<br/>samples = 72<br/>value = [3, 0, 3, 0, 3, 4, 0, 52, 0, 7]<br/>class = 7 - seven>, fillcolor="#bf76ed"] ;
430 -> 431 ;
432 [label=<x<SUB>154</SUB> &le; 46.5<br/>gini = 0.216<br/>samples = 59<br/>value = [3, 0, 0, 0, 0, 4, 0, 52, 0, 0]<br/>class = 7 - seven>, fillcolor="#af52e8"] ;
431 -> 432 ;
433 [label=<x<SUB>570</SUB> &le; 125.0<br/>gini = 0.037<br/>samples = 53<br/>value = [0, 0, 0, 0, 0, 1, 0, 52, 0, 0]<br/>class = 7 - seven>, fillcolor="#a53de6"] ;
432 -> 433 ;
434 [label=<gini = 0.0<br/>samples = 52<br/>value = [0, 0, 0, 0, 0, 0, 0, 52, 0, 0]<br/>class = 7 - seven>, fillcolor="#a339e5"] ;
433 -> 434 ;
435 [label=<gini = 0.0<br/>samples = 1<br/>value = [0, 0, 0, 0, 0, 1, 0, 0, 0, 0]<br/>class = 5 - five>, fillcolor="#399de5"] ;
433 -> 435 ;
436 [label=<x<SUB>357</SUB> &le; 36.5<br/>gini = 0.5<br/>samples = 6<br/>value = [3, 0, 0, 0, 0, 3, 0, 0, 0, 0]<br/>class = 0 - zero>, fillcolor="#ffffff"] ;
432 -> 436 ;
437 [label=<gini = 0.0<br/>samples = 3<br/>value = [0, 0, 0, 0, 0, 3, 0, 0, 0, 0]<br/>class = 5 - five>, fillcolor="#399de5"] ;
436 -> 437 ;
438 [label=<gini = 0.0<br/>samples = 3<br/>value = [3, 0, 0, 0, 0, 0, 0, 0, 0, 0]<br/>class = 0 - zero>, fillcolor="#e58139"] ;
436 -> 438 ;
439 [label=<x<SUB>397</SUB> &le; 5.5<br/>gini = 0.604<br/>samples = 13<br/>value = [0, 0, 3, 0, 3, 0, 0, 0, 0, 7]<br/>class = 9 - nine>, fillcolor="#f5b0bc"] ;
431 -> 439 ;
440 [label=<x<SUB>428</SUB> &le; 85.5<br/>gini = 0.5<br/>samples = 6<br/>value = [0, 0, 3, 0, 3, 0, 0, 0, 0, 0]<br/>class = 2 - two>, fillcolor="#ffffff"] ;
439 -> 440 ;
441 [label=<gini = 0.0<br/>samples = 3<br/>value = [0, 0, 3, 0, 0, 0, 0, 0, 0, 0]<br/>class = 2 - two>, fillcolor="#7be539"] ;
440 -> 441 ;
442 [label=<gini = 0.0<br/>samples = 3<br/>value = [0, 0, 0, 0, 3, 0, 0, 0, 0, 0]<br/>class = 4 - four>, fillcolor="#39e5c5"] ;
440 -> 442 ;
443 [label=<gini = 0.0<br/>samples = 7<br/>value = [0, 0, 0, 0, 0, 0, 0, 0, 0, 7]<br/>class = 9 - nine>, fillcolor="#e53958"] ;
439 -> 443 ;
444 [label=<x<SUB>463</SUB> &le; 14.5<br/>gini = 0.587<br/>samples = 196<br/>value = [24, 0, 9, 0, 25, 5, 120, 1, 0, 12]<br/>class = 6 - six>, fillcolor="#9391f1"] ;
430 -> 444 ;
445 [label=<x<SUB>466</SUB> &le; 0.5<br/>gini = 0.753<br/>samples = 62<br/>value = [24, 0, 2, 0, 12, 4, 12, 0, 0, 8]<br/>class = 0 - zero>, fillcolor="#f9e1cf"] ;
444 -> 445 ;
446 [label=<x<SUB>571</SUB> &le; 246.0<br/>gini = 0.344<br/>samples = 30<br/>value = [24, 0, 0, 0, 1, 2, 3, 0, 0, 0]<br/>class = 0 - zero>, fillcolor="#eb9d65"] ;
445 -> 446 ;
447 [label=<x<SUB>465</SUB> &le; 86.0<br/>gini = 0.08<br/>samples = 24<br/>value = [23, 0, 0, 0, 1, 0, 0, 0, 0, 0]<br/>class = 0 - zero>, fillcolor="#e68642"] ;
446 -> 447 ;
448 [label=<gini = 0.0<br/>samples = 23<br/>value = [23, 0, 0, 0, 0, 0, 0, 0, 0, 0]<br/>class = 0 - zero>, fillcolor="#e58139"] ;
447 -> 448 ;
449 [label=<gini = 0.0<br/>samples = 1<br/>value = [0, 0, 0, 0, 1, 0, 0, 0, 0, 0]<br/>class = 4 - four>, fillcolor="#39e5c5"] ;
447 -> 449 ;
450 [label=<x<SUB>573</SUB> &le; 83.0<br/>gini = 0.611<br/>samples = 6<br/>value = [1, 0, 0, 0, 0, 2, 3, 0, 0, 0]<br/>class = 6 - six>, fillcolor="#cecef8"] ;
446 -> 450 ;
451 [label=<x<SUB>497</SUB> &le; 167.5<br/>gini = 0.444<br/>samples = 3<br/>value = [1, 0, 0, 0, 0, 2, 0, 0, 0, 0]<br/>class = 5 - five>, fillcolor="#9ccef2"] ;
450 -> 451 ;
452 [label=<gini = 0.0<br/>samples = 2<br/>value = [0, 0, 0, 0, 0, 2, 0, 0, 0, 0]<br/>class = 5 - five>, fillcolor="#399de5"] ;
451 -> 452 ;
453 [label=<gini = 0.0<br/>samples = 1<br/>value = [1, 0, 0, 0, 0, 0, 0, 0, 0, 0]<br/>class = 0 - zero>, fillcolor="#e58139"] ;
451 -> 453 ;
454 [label=<gini = 0.0<br/>samples = 3<br/>value = [0, 0, 0, 0, 0, 0, 3, 0, 0, 0]<br/>class = 6 - six>, fillcolor="#3c39e5"] ;
450 -> 454 ;
455 [label=<x<SUB>372</SUB> &le; 3.5<br/>gini = 0.732<br/>samples = 32<br/>value = [0, 0, 2, 0, 11, 2, 9, 0, 0, 8]<br/>class = 4 - four>, fillcolor="#eefdfa"] ;
445 -> 455 ;
456 [label=<x<SUB>148</SUB> &le; 4.5<br/>gini = 0.612<br/>samples = 14<br/>value = [0, 0, 2, 0, 2, 2, 0, 0, 0, 8]<br/>class = 9 - nine>, fillcolor="#f29cac"] ;
455 -> 456 ;
457 [label=<x<SUB>492</SUB> &le; 244.5<br/>gini = 0.198<br/>samples = 9<br/>value = [0, 0, 0, 0, 0, 1, 0, 0, 0, 8]<br/>class = 9 - nine>, fillcolor="#e8526d"] ;
456 -> 457 ;
458 [label=<gini = 0.0<br/>samples = 8<br/>value = [0, 0, 0, 0, 0, 0, 0, 0, 0, 8]<br/>class = 9 - nine>, fillcolor="#e53958"] ;
457 -> 458 ;
459 [label=<gini = 0.0<br/>samples = 1<br/>value = [0, 0, 0, 0, 0, 1, 0, 0, 0, 0]<br/>class = 5 - five>, fillcolor="#399de5"] ;
457 -> 459 ;
460 [label=<x<SUB>442</SUB> &le; 115.5<br/>gini = 0.64<br/>samples = 5<br/>value = [0, 0, 2, 0, 2, 1, 0, 0, 0, 0]<br/>class = 2 - two>, fillcolor="#ffffff"] ;
456 -> 460 ;
461 [label=<x<SUB>272</SUB> &le; 41.5<br/>gini = 0.444<br/>samples = 3<br/>value = [0, 0, 2, 0, 0, 1, 0, 0, 0, 0]<br/>class = 2 - two>, fillcolor="#bdf29c"] ;
460 -> 461 ;
462 [label=<gini = 0.0<br/>samples = 1<br/>value = [0, 0, 0, 0, 0, 1, 0, 0, 0, 0]<br/>class = 5 - five>, fillcolor="#399de5"] ;
461 -> 462 ;
463 [label=<gini = 0.0<br/>samples = 2<br/>value = [0, 0, 2, 0, 0, 0, 0, 0, 0, 0]<br/>class = 2 - two>, fillcolor="#7be539"] ;
461 -> 463 ;
464 [label=<gini = 0.0<br/>samples = 2<br/>value = [0, 0, 0, 0, 2, 0, 0, 0, 0, 0]<br/>class = 4 - four>, fillcolor="#39e5c5"] ;
460 -> 464 ;
465 [label=<x<SUB>121</SUB> &le; 1.0<br/>gini = 0.5<br/>samples = 18<br/>value = [0, 0, 0, 0, 9, 0, 9, 0, 0, 0]<br/>class = 4 - four>, fillcolor="#ffffff"] ;
455 -> 465 ;
466 [label=<x<SUB>413</SUB> &le; 213.0<br/>gini = 0.18<br/>samples = 10<br/>value = [0, 0, 0, 0, 9, 0, 1, 0, 0, 0]<br/>class = 4 - four>, fillcolor="#4fe8cb"] ;
465 -> 466 ;
467 [label=<gini = 0.0<br/>samples = 9<br/>value = [0, 0, 0, 0, 9, 0, 0, 0, 0, 0]<br/>class = 4 - four>, fillcolor="#39e5c5"] ;
466 -> 467 ;
468 [label=<gini = 0.0<br/>samples = 1<br/>value = [0, 0, 0, 0, 0, 0, 1, 0, 0, 0]<br/>class = 6 - six>, fillcolor="#3c39e5"] ;
466 -> 468 ;
469 [label=<gini = 0.0<br/>samples = 8<br/>value = [0, 0, 0, 0, 0, 0, 8, 0, 0, 0]<br/>class = 6 - six>, fillcolor="#3c39e5"] ;
465 -> 469 ;
470 [label=<x<SUB>242</SUB> &le; 28.5<br/>gini = 0.337<br/>samples = 134<br/>value = [0, 0, 7, 0, 13, 1, 108, 1, 0, 4]<br/>class = 6 - six>, fillcolor="#6664eb"] ;
444 -> 470 ;
471 [label=<x<SUB>627</SUB> &le; 80.0<br/>gini = 0.135<br/>samples = 112<br/>value = [0, 0, 2, 0, 5, 0, 104, 0, 0, 1]<br/>class = 6 - six>, fillcolor="#4b48e7"] ;
470 -> 471 ;
472 [label=<x<SUB>239</SUB> &le; 1.5<br/>gini = 0.073<br/>samples = 107<br/>value = [0, 0, 1, 0, 2, 0, 103, 0, 0, 1]<br/>class = 6 - six>, fillcolor="#4341e6"] ;
471 -> 472 ;
473 [label=<x<SUB>243</SUB> &le; 116.0<br/>gini = 0.037<br/>samples = 105<br/>value = [0, 0, 0, 0, 2, 0, 103, 0, 0, 0]<br/>class = 6 - six>, fillcolor="#403de6"] ;
472 -> 473 ;
474 [label=<x<SUB>346</SUB> &le; 253.5<br/>gini = 0.019<br/>samples = 104<br/>value = [0, 0, 0, 0, 1, 0, 103, 0, 0, 0]<br/>class = 6 - six>, fillcolor="#3e3be5"] ;
473 -> 474 ;
475 [label=<gini = 0.0<br/>samples = 103<br/>value = [0, 0, 0, 0, 0, 0, 103, 0, 0, 0]<br/>class = 6 - six>, fillcolor="#3c39e5"] ;
474 -> 475 ;
476 [label=<gini = 0.0<br/>samples = 1<br/>value = [0, 0, 0, 0, 1, 0, 0, 0, 0, 0]<br/>class = 4 - four>, fillcolor="#39e5c5"] ;
474 -> 476 ;
477 [label=<gini = 0.0<br/>samples = 1<br/>value = [0, 0, 0, 0, 1, 0, 0, 0, 0, 0]<br/>class = 4 - four>, fillcolor="#39e5c5"] ;
473 -> 477 ;
478 [label=<x<SUB>260</SUB> &le; 0.5<br/>gini = 0.5<br/>samples = 2<br/>value = [0, 0, 1, 0, 0, 0, 0, 0, 0, 1]<br/>class = 2 - two>, fillcolor="#ffffff"] ;
472 -> 478 ;
479 [label=<gini = 0.0<br/>samples = 1<br/>value = [0, 0, 1, 0, 0, 0, 0, 0, 0, 0]<br/>class = 2 - two>, fillcolor="#7be539"] ;
478 -> 479 ;
480 [label=<gini = 0.0<br/>samples = 1<br/>value = [0, 0, 0, 0, 0, 0, 0, 0, 0, 1]<br/>class = 9 - nine>, fillcolor="#e53958"] ;
478 -> 480 ;
481 [label=<x<SUB>380</SUB> &le; 42.5<br/>gini = 0.56<br/>samples = 5<br/>value = [0, 0, 1, 0, 3, 0, 1, 0, 0, 0]<br/>class = 4 - four>, fillcolor="#9cf2e2"] ;
471 -> 481 ;
482 [label=<x<SUB>512</SUB> &le; 202.0<br/>gini = 0.5<br/>samples = 2<br/>value = [0, 0, 1, 0, 0, 0, 1, 0, 0, 0]<br/>class = 2 - two>, fillcolor="#ffffff"] ;
481 -> 482 ;
483 [label=<gini = 0.0<br/>samples = 1<br/>value = [0, 0, 0, 0, 0, 0, 1, 0, 0, 0]<br/>class = 6 - six>, fillcolor="#3c39e5"] ;
482 -> 483 ;
484 [label=<gini = 0.0<br/>samples = 1<br/>value = [0, 0, 1, 0, 0, 0, 0, 0, 0, 0]<br/>class = 2 - two>, fillcolor="#7be539"] ;
482 -> 484 ;
485 [label=<gini = 0.0<br/>samples = 3<br/>value = [0, 0, 0, 0, 3, 0, 0, 0, 0, 0]<br/>class = 4 - four>, fillcolor="#39e5c5"] ;
481 -> 485 ;
486 [label=<x<SUB>400</SUB> &le; 137.5<br/>gini = 0.76<br/>samples = 22<br/>value = [0, 0, 5, 0, 8, 1, 4, 1, 0, 3]<br/>class = 4 - four>, fillcolor="#dcfaf5"] ;
470 -> 486 ;
487 [label=<x<SUB>235</SUB> &le; 36.0<br/>gini = 0.694<br/>samples = 11<br/>value = [0, 0, 5, 0, 0, 1, 1, 1, 0, 3]<br/>class = 2 - two>, fillcolor="#def8ce"] ;
486 -> 487 ;
488 [label=<x<SUB>600</SUB> &le; 200.5<br/>gini = 0.562<br/>samples = 8<br/>value = [0, 0, 5, 0, 0, 1, 1, 1, 0, 0]<br/>class = 2 - two>, fillcolor="#b4f08e"] ;
487 -> 488 ;
489 [label=<gini = 0.0<br/>samples = 5<br/>value = [0, 0, 5, 0, 0, 0, 0, 0, 0, 0]<br/>class = 2 - two>, fillcolor="#7be539"] ;
488 -> 489 ;
490 [label=<x<SUB>471</SUB> &le; 27.0<br/>gini = 0.667<br/>samples = 3<br/>value = [0, 0, 0, 0, 0, 1, 1, 1, 0, 0]<br/>class = 5 - five>, fillcolor="#ffffff"] ;
488 -> 490 ;
491 [label=<x<SUB>217</SUB> &le; 43.0<br/>gini = 0.5<br/>samples = 2<br/>value = [0, 0, 0, 0, 0, 1, 0, 1, 0, 0]<br/>class = 5 - five>, fillcolor="#ffffff"] ;
490 -> 491 ;
492 [label=<gini = 0.0<br/>samples = 1<br/>value = [0, 0, 0, 0, 0, 0, 0, 1, 0, 0]<br/>class = 7 - seven>, fillcolor="#a339e5"] ;
491 -> 492 ;
493 [label=<gini = 0.0<br/>samples = 1<br/>value = [0, 0, 0, 0, 0, 1, 0, 0, 0, 0]<br/>class = 5 - five>, fillcolor="#399de5"] ;
491 -> 493 ;
494 [label=<gini = 0.0<br/>samples = 1<br/>value = [0, 0, 0, 0, 0, 0, 1, 0, 0, 0]<br/>class = 6 - six>, fillcolor="#3c39e5"] ;
490 -> 494 ;
495 [label=<gini = 0.0<br/>samples = 3<br/>value = [0, 0, 0, 0, 0, 0, 0, 0, 0, 3]<br/>class = 9 - nine>, fillcolor="#e53958"] ;
487 -> 495 ;
496 [label=<x<SUB>94</SUB> &le; 2.0<br/>gini = 0.397<br/>samples = 11<br/>value = [0, 0, 0, 0, 8, 0, 3, 0, 0, 0]<br/>class = 4 - four>, fillcolor="#83efdb"] ;
486 -> 496 ;
497 [label=<gini = 0.0<br/>samples = 8<br/>value = [0, 0, 0, 0, 8, 0, 0, 0, 0, 0]<br/>class = 4 - four>, fillcolor="#39e5c5"] ;
496 -> 497 ;
498 [label=<gini = 0.0<br/>samples = 3<br/>value = [0, 0, 0, 0, 0, 0, 3, 0, 0, 0]<br/>class = 6 - six>, fillcolor="#3c39e5"] ;
496 -> 498 ;
499 [label=<x<SUB>427</SUB> &le; 1.5<br/>gini = 0.475<br/>samples = 354<br/>value = [5, 0, 34, 0, 252, 6, 19, 15, 1, 22]<br/>class = 4 - four>, fillcolor="#78edd7"] ;
429 -> 499 ;
500 [label=<x<SUB>127</SUB> &le; 6.5<br/>gini = 0.666<br/>samples = 62<br/>value = [0, 0, 30, 0, 13, 0, 1, 14, 0, 4]<br/>class = 2 - two>, fillcolor="#d3f6bd"] ;
499 -> 500 ;
501 [label=<x<SUB>266</SUB> &le; 22.0<br/>gini = 0.702<br/>samples = 38<br/>value = [0, 0, 7, 0, 13, 0, 0, 14, 0, 4]<br/>class = 7 - seven>, fillcolor="#fbf7fe"] ;
500 -> 501 ;
502 [label=<x<SUB>183</SUB> &le; 109.5<br/>gini = 0.444<br/>samples = 18<br/>value = [0, 0, 1, 0, 13, 0, 0, 1, 0, 3]<br/>class = 4 - four>, fillcolor="#7beed8"] ;
501 -> 502 ;
503 [label=<x<SUB>294</SUB> &le; 101.5<br/>gini = 0.133<br/>samples = 14<br/>value = [0, 0, 0, 0, 13, 0, 0, 0, 0, 1]<br/>class = 4 - four>, fillcolor="#48e7c9"] ;
502 -> 503 ;
504 [label=<gini = 0.0<br/>samples = 13<br/>value = [0, 0, 0, 0, 13, 0, 0, 0, 0, 0]<br/>class = 4 - four>, fillcolor="#39e5c5"] ;
503 -> 504 ;
505 [label=<gini = 0.0<br/>samples = 1<br/>value = [0, 0, 0, 0, 0, 0, 0, 0, 0, 1]<br/>class = 9 - nine>, fillcolor="#e53958"] ;
503 -> 505 ;
506 [label=<x<SUB>384</SUB> &le; 48.0<br/>gini = 0.625<br/>samples = 4<br/>value = [0, 0, 1, 0, 0, 0, 0, 1, 0, 2]<br/>class = 9 - nine>, fillcolor="#f6bdc7"] ;
502 -> 506 ;
507 [label=<gini = 0.0<br/>samples = 2<br/>value = [0, 0, 0, 0, 0, 0, 0, 0, 0, 2]<br/>class = 9 - nine>, fillcolor="#e53958"] ;
506 -> 507 ;
508 [label=<x<SUB>156</SUB> &le; 185.0<br/>gini = 0.5<br/>samples = 2<br/>value = [0, 0, 1, 0, 0, 0, 0, 1, 0, 0]<br/>class = 2 - two>, fillcolor="#ffffff"] ;
506 -> 508 ;
509 [label=<gini = 0.0<br/>samples = 1<br/>value = [0, 0, 0, 0, 0, 0, 0, 1, 0, 0]<br/>class = 7 - seven>, fillcolor="#a339e5"] ;
508 -> 509 ;
510 [label=<gini = 0.0<br/>samples = 1<br/>value = [0, 0, 1, 0, 0, 0, 0, 0, 0, 0]<br/>class = 2 - two>, fillcolor="#7be539"] ;
508 -> 510 ;
511 [label=<x<SUB>490</SUB> &le; 218.5<br/>gini = 0.485<br/>samples = 20<br/>value = [0, 0, 6, 0, 0, 0, 0, 13, 0, 1]<br/>class = 7 - seven>, fillcolor="#d19cf2"] ;
501 -> 511 ;
512 [label=<x<SUB>384</SUB> &le; 54.0<br/>gini = 0.449<br/>samples = 7<br/>value = [0, 0, 5, 0, 0, 0, 0, 1, 0, 1]<br/>class = 2 - two>, fillcolor="#a7ee7b"] ;
511 -> 512 ;
513 [label=<gini = 0.0<br/>samples = 5<br/>value = [0, 0, 5, 0, 0, 0, 0, 0, 0, 0]<br/>class = 2 - two>, fillcolor="#7be539"] ;
512 -> 513 ;
514 [label=<x<SUB>514</SUB> &le; 81.0<br/>gini = 0.5<br/>samples = 2<br/>value = [0, 0, 0, 0, 0, 0, 0, 1, 0, 1]<br/>class = 7 - seven>, fillcolor="#ffffff"] ;
512 -> 514 ;
515 [label=<gini = 0.0<br/>samples = 1<br/>value = [0, 0, 0, 0, 0, 0, 0, 1, 0, 0]<br/>class = 7 - seven>, fillcolor="#a339e5"] ;
514 -> 515 ;
516 [label=<gini = 0.0<br/>samples = 1<br/>value = [0, 0, 0, 0, 0, 0, 0, 0, 0, 1]<br/>class = 9 - nine>, fillcolor="#e53958"] ;
514 -> 516 ;
517 [label=<x<SUB>518</SUB> &le; 87.5<br/>gini = 0.142<br/>samples = 13<br/>value = [0, 0, 1, 0, 0, 0, 0, 12, 0, 0]<br/>class = 7 - seven>, fillcolor="#ab49e7"] ;
511 -> 517 ;
518 [label=<gini = 0.0<br/>samples = 1<br/>value = [0, 0, 1, 0, 0, 0, 0, 0, 0, 0]<br/>class = 2 - two>, fillcolor="#7be539"] ;
517 -> 518 ;
519 [label=<gini = 0.0<br/>samples = 12<br/>value = [0, 0, 0, 0, 0, 0, 0, 12, 0, 0]<br/>class = 7 - seven>, fillcolor="#a339e5"] ;
517 -> 519 ;
520 [label=<x<SUB>402</SUB> &le; 58.5<br/>gini = 0.08<br/>samples = 24<br/>value = [0, 0, 23, 0, 0, 0, 1, 0, 0, 0]<br/>class = 2 - two>, fillcolor="#81e642"] ;
500 -> 520 ;
521 [label=<gini = 0.0<br/>samples = 23<br/>value = [0, 0, 23, 0, 0, 0, 0, 0, 0, 0]<br/>class = 2 - two>, fillcolor="#7be539"] ;
520 -> 521 ;
522 [label=<gini = 0.0<br/>samples = 1<br/>value = [0, 0, 0, 0, 0, 0, 1, 0, 0, 0]<br/>class = 6 - six>, fillcolor="#3c39e5"] ;
520 -> 522 ;
523 [label=<x<SUB>294</SUB> &le; 9.5<br/>gini = 0.322<br/>samples = 292<br/>value = [5, 0, 4, 0, 239, 6, 18, 1, 1, 18]<br/>class = 4 - four>, fillcolor="#5fead0"] ;
499 -> 523 ;
524 [label=<x<SUB>96</SUB> &le; 72.0<br/>gini = 0.209<br/>samples = 264<br/>value = [1, 0, 2, 0, 234, 0, 18, 0, 1, 8]<br/>class = 4 - four>, fillcolor="#51e8cc"] ;
523 -> 524 ;
525 [label=<x<SUB>127</SUB> &le; 198.0<br/>gini = 0.156<br/>samples = 255<br/>value = [1, 0, 2, 0, 234, 0, 9, 0, 1, 8]<br/>class = 4 - four>, fillcolor="#4ae7ca"] ;
524 -> 525 ;
526 [label=<x<SUB>182</SUB> &le; 175.0<br/>gini = 0.101<br/>samples = 247<br/>value = [1, 0, 0, 0, 234, 0, 3, 0, 1, 8]<br/>class = 4 - four>, fillcolor="#44e6c8"] ;
525 -> 526 ;
527 [label=<x<SUB>359</SUB> &le; 251.0<br/>gini = 0.058<br/>samples = 236<br/>value = [1, 0, 0, 0, 229, 0, 3, 0, 0, 3]<br/>class = 4 - four>, fillcolor="#3fe6c7"] ;
526 -> 527 ;
528 [label=<x<SUB>239</SUB> &le; 183.0<br/>gini = 0.034<br/>samples = 232<br/>value = [1, 0, 0, 0, 228, 0, 0, 0, 0, 3]<br/>class = 4 - four>, fillcolor="#3ce5c6"] ;
527 -> 528 ;
529 [label=<x<SUB>413</SUB> &le; 254.5<br/>gini = 0.017<br/>samples = 230<br/>value = [1, 0, 0, 0, 228, 0, 0, 0, 0, 1]<br/>class = 4 - four>, fillcolor="#3be5c6"] ;
528 -> 529 ;
530 [label=<x<SUB>484</SUB> &le; 12.5<br/>gini = 0.009<br/>samples = 229<br/>value = [0, 0, 0, 0, 228, 0, 0, 0, 0, 1]<br/>class = 4 - four>, fillcolor="#3ae5c5"] ;
529 -> 530 ;
531 [label=<x<SUB>659</SUB> &le; 119.5<br/>gini = 0.5<br/>samples = 2<br/>value = [0, 0, 0, 0, 1, 0, 0, 0, 0, 1]<br/>class = 4 - four>, fillcolor="#ffffff"] ;
530 -> 531 ;
532 [label=<gini = 0.0<br/>samples = 1<br/>value = [0, 0, 0, 0, 0, 0, 0, 0, 0, 1]<br/>class = 9 - nine>, fillcolor="#e53958"] ;
531 -> 532 ;
533 [label=<gini = 0.0<br/>samples = 1<br/>value = [0, 0, 0, 0, 1, 0, 0, 0, 0, 0]<br/>class = 4 - four>, fillcolor="#39e5c5"] ;
531 -> 533 ;
534 [label=<gini = 0.0<br/>samples = 227<br/>value = [0, 0, 0, 0, 227, 0, 0, 0, 0, 0]<br/>class = 4 - four>, fillcolor="#39e5c5"] ;
530 -> 534 ;
535 [label=<gini = 0.0<br/>samples = 1<br/>value = [1, 0, 0, 0, 0, 0, 0, 0, 0, 0]<br/>class = 0 - zero>, fillcolor="#e58139"] ;
529 -> 535 ;
536 [label=<gini = 0.0<br/>samples = 2<br/>value = [0, 0, 0, 0, 0, 0, 0, 0, 0, 2]<br/>class = 9 - nine>, fillcolor="#e53958"] ;
528 -> 536 ;
537 [label=<x<SUB>603</SUB> &le; 34.5<br/>gini = 0.375<br/>samples = 4<br/>value = [0, 0, 0, 0, 1, 0, 3, 0, 0, 0]<br/>class = 6 - six>, fillcolor="#7d7bee"] ;
527 -> 537 ;
538 [label=<gini = 0.0<br/>samples = 3<br/>value = [0, 0, 0, 0, 0, 0, 3, 0, 0, 0]<br/>class = 6 - six>, fillcolor="#3c39e5"] ;
537 -> 538 ;
539 [label=<gini = 0.0<br/>samples = 1<br/>value = [0, 0, 0, 0, 1, 0, 0, 0, 0, 0]<br/>class = 4 - four>, fillcolor="#39e5c5"] ;
537 -> 539 ;
540 [label=<x<SUB>291</SUB> &le; 84.5<br/>gini = 0.579<br/>samples = 11<br/>value = [0, 0, 0, 0, 5, 0, 0, 0, 1, 5]<br/>class = 4 - four>, fillcolor="#ffffff"] ;
526 -> 540 ;
541 [label=<gini = 0.0<br/>samples = 5<br/>value = [0, 0, 0, 0, 0, 0, 0, 0, 0, 5]<br/>class = 9 - nine>, fillcolor="#e53958"] ;
540 -> 541 ;
542 [label=<x<SUB>345</SUB> &le; 130.0<br/>gini = 0.278<br/>samples = 6<br/>value = [0, 0, 0, 0, 5, 0, 0, 0, 1, 0]<br/>class = 4 - four>, fillcolor="#61ead1"] ;
540 -> 542 ;
543 [label=<gini = 0.0<br/>samples = 1<br/>value = [0, 0, 0, 0, 0, 0, 0, 0, 1, 0]<br/>class = 8 - eight>, fillcolor="#e539c0"] ;
542 -> 543 ;
544 [label=<gini = 0.0<br/>samples = 5<br/>value = [0, 0, 0, 0, 5, 0, 0, 0, 0, 0]<br/>class = 4 - four>, fillcolor="#39e5c5"] ;
542 -> 544 ;
545 [label=<x<SUB>652</SUB> &le; 117.5<br/>gini = 0.375<br/>samples = 8<br/>value = [0, 0, 2, 0, 0, 0, 6, 0, 0, 0]<br/>class = 6 - six>, fillcolor="#7d7bee"] ;
525 -> 545 ;
546 [label=<gini = 0.0<br/>samples = 6<br/>value = [0, 0, 0, 0, 0, 0, 6, 0, 0, 0]<br/>class = 6 - six>, fillcolor="#3c39e5"] ;
545 -> 546 ;
547 [label=<gini = 0.0<br/>samples = 2<br/>value = [0, 0, 2, 0, 0, 0, 0, 0, 0, 0]<br/>class = 2 - two>, fillcolor="#7be539"] ;
545 -> 547 ;
548 [label=<gini = 0.0<br/>samples = 9<br/>value = [0, 0, 0, 0, 0, 0, 9, 0, 0, 0]<br/>class = 6 - six>, fillcolor="#3c39e5"] ;
524 -> 548 ;
549 [label=<x<SUB>383</SUB> &le; 100.0<br/>gini = 0.768<br/>samples = 28<br/>value = [4, 0, 2, 0, 5, 6, 0, 1, 0, 10]<br/>class = 9 - nine>, fillcolor="#fadbe1"] ;
523 -> 549 ;
550 [label=<x<SUB>247</SUB> &le; 10.5<br/>gini = 0.785<br/>samples = 20<br/>value = [4, 0, 2, 0, 5, 6, 0, 1, 0, 2]<br/>class = 5 - five>, fillcolor="#f2f8fd"] ;
549 -> 550 ;
551 [label=<x<SUB>358</SUB> &le; 4.0<br/>gini = 0.745<br/>samples = 14<br/>value = [4, 0, 2, 0, 5, 0, 0, 1, 0, 2]<br/>class = 4 - four>, fillcolor="#ebfcf9"] ;
550 -> 551 ;
552 [label=<x<SUB>375</SUB> &le; 8.0<br/>gini = 0.66<br/>samples = 10<br/>value = [0, 0, 2, 0, 5, 0, 0, 1, 0, 2]<br/>class = 4 - four>, fillcolor="#b5f5e9"] ;
551 -> 552 ;
553 [label=<x<SUB>456</SUB> &le; 245.0<br/>gini = 0.64<br/>samples = 5<br/>value = [0, 0, 2, 0, 0, 0, 0, 1, 0, 2]<br/>class = 2 - two>, fillcolor="#ffffff"] ;
552 -> 553 ;
554 [label=<x<SUB>294</SUB> &le; 213.0<br/>gini = 0.444<br/>samples = 3<br/>value = [0, 0, 0, 0, 0, 0, 0, 1, 0, 2]<br/>class = 9 - nine>, fillcolor="#f29cac"] ;
553 -> 554 ;
555 [label=<gini = 0.0<br/>samples = 2<br/>value = [0, 0, 0, 0, 0, 0, 0, 0, 0, 2]<br/>class = 9 - nine>, fillcolor="#e53958"] ;
554 -> 555 ;
556 [label=<gini = 0.0<br/>samples = 1<br/>value = [0, 0, 0, 0, 0, 0, 0, 1, 0, 0]<br/>class = 7 - seven>, fillcolor="#a339e5"] ;
554 -> 556 ;
557 [label=<gini = 0.0<br/>samples = 2<br/>value = [0, 0, 2, 0, 0, 0, 0, 0, 0, 0]<br/>class = 2 - two>, fillcolor="#7be539"] ;
553 -> 557 ;
558 [label=<gini = 0.0<br/>samples = 5<br/>value = [0, 0, 0, 0, 5, 0, 0, 0, 0, 0]<br/>class = 4 - four>, fillcolor="#39e5c5"] ;
552 -> 558 ;
559 [label=<gini = 0.0<br/>samples = 4<br/>value = [4, 0, 0, 0, 0, 0, 0, 0, 0, 0]<br/>class = 0 - zero>, fillcolor="#e58139"] ;
551 -> 559 ;
560 [label=<gini = 0.0<br/>samples = 6<br/>value = [0, 0, 0, 0, 0, 6, 0, 0, 0, 0]<br/>class = 5 - five>, fillcolor="#399de5"] ;
550 -> 560 ;
561 [label=<gini = 0.0<br/>samples = 8<br/>value = [0, 0, 0, 0, 0, 0, 0, 0, 0, 8]<br/>class = 9 - nine>, fillcolor="#e53958"] ;
549 -> 561 ;
562 [label=<x<SUB>437</SUB> &le; 1.0<br/>gini = 0.619<br/>samples = 660<br/>value = [84, 0, 37, 6, 42, 13, 8, 80, 4, 386]<br/>class = 9 - nine>, fillcolor="#f197a7"] ;
428 -> 562 ;
563 [label=<x<SUB>489</SUB> &le; 9.0<br/>gini = 0.579<br/>samples = 132<br/>value = [82, 0, 5, 4, 1, 11, 1, 9, 0, 19]<br/>class = 0 - zero>, fillcolor="#f1b991"] ;
562 -> 563 ;
564 [label=<x<SUB>428</SUB> &le; 2.0<br/>gini = 0.302<br/>samples = 94<br/>value = [78, 0, 1, 3, 0, 0, 0, 5, 0, 7]<br/>class = 0 - zero>, fillcolor="#ea985d"] ;
563 -> 564 ;
565 [label=<x<SUB>493</SUB> &le; 18.0<br/>gini = 0.568<br/>samples = 9<br/>value = [1, 0, 0, 3, 0, 0, 0, 0, 0, 5]<br/>class = 9 - nine>, fillcolor="#f6bdc7"] ;
564 -> 565 ;
566 [label=<x<SUB>315</SUB> &le; 126.5<br/>gini = 0.375<br/>samples = 4<br/>value = [1, 0, 0, 3, 0, 0, 0, 0, 0, 0]<br/>class = 3 - three>, fillcolor="#7bee94"] ;
565 -> 566 ;
567 [label=<gini = 0.0<br/>samples = 3<br/>value = [0, 0, 0, 3, 0, 0, 0, 0, 0, 0]<br/>class = 3 - three>, fillcolor="#39e55e"] ;
566 -> 567 ;
568 [label=<gini = 0.0<br/>samples = 1<br/>value = [1, 0, 0, 0, 0, 0, 0, 0, 0, 0]<br/>class = 0 - zero>, fillcolor="#e58139"] ;
566 -> 568 ;
569 [label=<gini = 0.0<br/>samples = 5<br/>value = [0, 0, 0, 0, 0, 0, 0, 0, 0, 5]<br/>class = 9 - nine>, fillcolor="#e53958"] ;
565 -> 569 ;
570 [label=<x<SUB>715</SUB> &le; 41.0<br/>gini = 0.175<br/>samples = 85<br/>value = [77, 0, 1, 0, 0, 0, 0, 5, 0, 2]<br/>class = 0 - zero>, fillcolor="#e88e4d"] ;
564 -> 570 ;
571 [label=<x<SUB>690</SUB> &le; 203.0<br/>gini = 0.073<br/>samples = 80<br/>value = [77, 0, 1, 0, 0, 0, 0, 1, 0, 1]<br/>class = 0 - zero>, fillcolor="#e68641"] ;
570 -> 571 ;
572 [label=<x<SUB>530</SUB> &le; 111.5<br/>gini = 0.025<br/>samples = 78<br/>value = [77, 0, 1, 0, 0, 0, 0, 0, 0, 0]<br/>class = 0 - zero>, fillcolor="#e5833c"] ;
571 -> 572 ;
573 [label=<gini = 0.0<br/>samples = 77<br/>value = [77, 0, 0, 0, 0, 0, 0, 0, 0, 0]<br/>class = 0 - zero>, fillcolor="#e58139"] ;
572 -> 573 ;
574 [label=<gini = 0.0<br/>samples = 1<br/>value = [0, 0, 1, 0, 0, 0, 0, 0, 0, 0]<br/>class = 2 - two>, fillcolor="#7be539"] ;
572 -> 574 ;
575 [label=<x<SUB>270</SUB> &le; 226.0<br/>gini = 0.5<br/>samples = 2<br/>value = [0, 0, 0, 0, 0, 0, 0, 1, 0, 1]<br/>class = 7 - seven>, fillcolor="#ffffff"] ;
571 -> 575 ;
576 [label=<gini = 0.0<br/>samples = 1<br/>value = [0, 0, 0, 0, 0, 0, 0, 1, 0, 0]<br/>class = 7 - seven>, fillcolor="#a339e5"] ;
575 -> 576 ;
577 [label=<gini = 0.0<br/>samples = 1<br/>value = [0, 0, 0, 0, 0, 0, 0, 0, 0, 1]<br/>class = 9 - nine>, fillcolor="#e53958"] ;
575 -> 577 ;
578 [label=<x<SUB>286</SUB> &le; 8.5<br/>gini = 0.32<br/>samples = 5<br/>value = [0, 0, 0, 0, 0, 0, 0, 4, 0, 1]<br/>class = 7 - seven>, fillcolor="#ba6aec"] ;
570 -> 578 ;
579 [label=<gini = 0.0<br/>samples = 1<br/>value = [0, 0, 0, 0, 0, 0, 0, 0, 0, 1]<br/>class = 9 - nine>, fillcolor="#e53958"] ;
578 -> 579 ;
580 [label=<gini = 0.0<br/>samples = 4<br/>value = [0, 0, 0, 0, 0, 0, 0, 4, 0, 0]<br/>class = 7 - seven>, fillcolor="#a339e5"] ;
578 -> 580 ;
581 [label=<x<SUB>318</SUB> &le; 21.5<br/>gini = 0.781<br/>samples = 38<br/>value = [4, 0, 4, 1, 1, 11, 1, 4, 0, 12]<br/>class = 9 - nine>, fillcolor="#fef8f9"] ;
563 -> 581 ;
582 [label=<x<SUB>574</SUB> &le; 1.5<br/>gini = 0.707<br/>samples = 25<br/>value = [2, 0, 4, 1, 0, 1, 1, 4, 0, 12]<br/>class = 9 - nine>, fillcolor="#f5b4bf"] ;
581 -> 582 ;
583 [label=<x<SUB>208</SUB> &le; 90.5<br/>gini = 0.347<br/>samples = 15<br/>value = [0, 0, 1, 1, 0, 1, 0, 0, 0, 12]<br/>class = 9 - nine>, fillcolor="#eb637c"] ;
582 -> 583 ;
584 [label=<x<SUB>243</SUB> &le; 85.5<br/>gini = 0.667<br/>samples = 3<br/>value = [0, 0, 1, 1, 0, 1, 0, 0, 0, 0]<br/>class = 2 - two>, fillcolor="#ffffff"] ;
583 -> 584 ;
585 [label=<x<SUB>513</SUB> &le; 182.5<br/>gini = 0.5<br/>samples = 2<br/>value = [0, 0, 1, 1, 0, 0, 0, 0, 0, 0]<br/>class = 2 - two>, fillcolor="#ffffff"] ;
584 -> 585 ;
586 [label=<gini = 0.0<br/>samples = 1<br/>value = [0, 0, 0, 1, 0, 0, 0, 0, 0, 0]<br/>class = 3 - three>, fillcolor="#39e55e"] ;
585 -> 586 ;
587 [label=<gini = 0.0<br/>samples = 1<br/>value = [0, 0, 1, 0, 0, 0, 0, 0, 0, 0]<br/>class = 2 - two>, fillcolor="#7be539"] ;
585 -> 587 ;
588 [label=<gini = 0.0<br/>samples = 1<br/>value = [0, 0, 0, 0, 0, 1, 0, 0, 0, 0]<br/>class = 5 - five>, fillcolor="#399de5"] ;
584 -> 588 ;
589 [label=<gini = 0.0<br/>samples = 12<br/>value = [0, 0, 0, 0, 0, 0, 0, 0, 0, 12]<br/>class = 9 - nine>, fillcolor="#e53958"] ;
583 -> 589 ;
590 [label=<x<SUB>324</SUB> &le; 1.5<br/>gini = 0.7<br/>samples = 10<br/>value = [2, 0, 3, 0, 0, 0, 1, 4, 0, 0]<br/>class = 7 - seven>, fillcolor="#f2e3fb"] ;
582 -> 590 ;
591 [label=<x<SUB>426</SUB> &le; 36.0<br/>gini = 0.611<br/>samples = 6<br/>value = [2, 0, 3, 0, 0, 0, 1, 0, 0, 0]<br/>class = 2 - two>, fillcolor="#def8ce"] ;
590 -> 591 ;
592 [label=<gini = 0.0<br/>samples = 3<br/>value = [0, 0, 3, 0, 0, 0, 0, 0, 0, 0]<br/>class = 2 - two>, fillcolor="#7be539"] ;
591 -> 592 ;
593 [label=<x<SUB>498</SUB> &le; 6.0<br/>gini = 0.444<br/>samples = 3<br/>value = [2, 0, 0, 0, 0, 0, 1, 0, 0, 0]<br/>class = 0 - zero>, fillcolor="#f2c09c"] ;
591 -> 593 ;
594 [label=<gini = 0.0<br/>samples = 1<br/>value = [0, 0, 0, 0, 0, 0, 1, 0, 0, 0]<br/>class = 6 - six>, fillcolor="#3c39e5"] ;
593 -> 594 ;
595 [label=<gini = 0.0<br/>samples = 2<br/>value = [2, 0, 0, 0, 0, 0, 0, 0, 0, 0]<br/>class = 0 - zero>, fillcolor="#e58139"] ;
593 -> 595 ;
596 [label=<gini = 0.0<br/>samples = 4<br/>value = [0, 0, 0, 0, 0, 0, 0, 4, 0, 0]<br/>class = 7 - seven>, fillcolor="#a339e5"] ;
590 -> 596 ;
597 [label=<x<SUB>469</SUB> &le; 16.5<br/>gini = 0.379<br/>samples = 13<br/>value = [2, 0, 0, 0, 1, 10, 0, 0, 0, 0]<br/>class = 5 - five>, fillcolor="#6fb8ec"] ;
581 -> 597 ;
598 [label=<gini = 0.0<br/>samples = 10<br/>value = [0, 0, 0, 0, 0, 10, 0, 0, 0, 0]<br/>class = 5 - five>, fillcolor="#399de5"] ;
597 -> 598 ;
599 [label=<x<SUB>215</SUB> &le; 0.5<br/>gini = 0.444<br/>samples = 3<br/>value = [2, 0, 0, 0, 1, 0, 0, 0, 0, 0]<br/>class = 0 - zero>, fillcolor="#f2c09c"] ;
597 -> 599 ;
600 [label=<gini = 0.0<br/>samples = 1<br/>value = [0, 0, 0, 0, 1, 0, 0, 0, 0, 0]<br/>class = 4 - four>, fillcolor="#39e5c5"] ;
599 -> 600 ;
601 [label=<gini = 0.0<br/>samples = 2<br/>value = [2, 0, 0, 0, 0, 0, 0, 0, 0, 0]<br/>class = 0 - zero>, fillcolor="#e58139"] ;
599 -> 601 ;
602 [label=<x<SUB>427</SUB> &le; 0.5<br/>gini = 0.489<br/>samples = 528<br/>value = [2, 0, 32, 2, 41, 2, 7, 71, 4, 367]<br/>class = 9 - nine>, fillcolor="#ee7f93"] ;
562 -> 602 ;
603 [label=<x<SUB>538</SUB> &le; 92.5<br/>gini = 0.68<br/>samples = 121<br/>value = [0, 0, 31, 2, 3, 1, 2, 54, 0, 28]<br/>class = 7 - seven>, fillcolor="#e7ccf8"] ;
602 -> 603 ;
604 [label=<x<SUB>232</SUB> &le; 12.0<br/>gini = 0.58<br/>samples = 93<br/>value = [0, 0, 5, 1, 3, 1, 2, 53, 0, 28]<br/>class = 7 - seven>, fillcolor="#dcb3f5"] ;
603 -> 604 ;
605 [label=<x<SUB>546</SUB> &le; 210.5<br/>gini = 0.602<br/>samples = 40<br/>value = [0, 0, 3, 1, 3, 1, 2, 6, 0, 24]<br/>class = 9 - nine>, fillcolor="#f196a7"] ;
604 -> 605 ;
606 [label=<x<SUB>461</SUB> &le; 242.0<br/>gini = 0.316<br/>samples = 28<br/>value = [0, 0, 0, 1, 2, 1, 0, 1, 0, 23]<br/>class = 9 - nine>, fillcolor="#ea5f78"] ;
605 -> 606 ;
607 [label=<x<SUB>201</SUB> &le; 26.5<br/>gini = 0.08<br/>samples = 24<br/>value = [0, 0, 0, 0, 1, 0, 0, 0, 0, 23]<br/>class = 9 - nine>, fillcolor="#e6425f"] ;
606 -> 607 ;
608 [label=<gini = 0.0<br/>samples = 23<br/>value = [0, 0, 0, 0, 0, 0, 0, 0, 0, 23]<br/>class = 9 - nine>, fillcolor="#e53958"] ;
607 -> 608 ;
609 [label=<gini = 0.0<br/>samples = 1<br/>value = [0, 0, 0, 0, 1, 0, 0, 0, 0, 0]<br/>class = 4 - four>, fillcolor="#39e5c5"] ;
607 -> 609 ;
610 [label=<x<SUB>372</SUB> &le; 13.5<br/>gini = 0.75<br/>samples = 4<br/>value = [0, 0, 0, 1, 1, 1, 0, 1, 0, 0]<br/>class = 3 - three>, fillcolor="#ffffff"] ;
606 -> 610 ;
611 [label=<x<SUB>245</SUB> &le; 92.5<br/>gini = 0.5<br/>samples = 2<br/>value = [0, 0, 0, 1, 0, 0, 0, 1, 0, 0]<br/>class = 3 - three>, fillcolor="#ffffff"] ;
610 -> 611 ;
612 [label=<gini = 0.0<br/>samples = 1<br/>value = [0, 0, 0, 0, 0, 0, 0, 1, 0, 0]<br/>class = 7 - seven>, fillcolor="#a339e5"] ;
611 -> 612 ;
613 [label=<gini = 0.0<br/>samples = 1<br/>value = [0, 0, 0, 1, 0, 0, 0, 0, 0, 0]<br/>class = 3 - three>, fillcolor="#39e55e"] ;
611 -> 613 ;
614 [label=<x<SUB>262</SUB> &le; 239.5<br/>gini = 0.5<br/>samples = 2<br/>value = [0, 0, 0, 0, 1, 1, 0, 0, 0, 0]<br/>class = 4 - four>, fillcolor="#ffffff"] ;
610 -> 614 ;
615 [label=<gini = 0.0<br/>samples = 1<br/>value = [0, 0, 0, 0, 1, 0, 0, 0, 0, 0]<br/>class = 4 - four>, fillcolor="#39e5c5"] ;
614 -> 615 ;
616 [label=<gini = 0.0<br/>samples = 1<br/>value = [0, 0, 0, 0, 0, 1, 0, 0, 0, 0]<br/>class = 5 - five>, fillcolor="#399de5"] ;
614 -> 616 ;
617 [label=<x<SUB>520</SUB> &le; 126.5<br/>gini = 0.722<br/>samples = 12<br/>value = [0, 0, 3, 0, 1, 0, 2, 5, 0, 1]<br/>class = 7 - seven>, fillcolor="#ebd3f9"] ;
605 -> 617 ;
618 [label=<gini = 0.0<br/>samples = 5<br/>value = [0, 0, 0, 0, 0, 0, 0, 5, 0, 0]<br/>class = 7 - seven>, fillcolor="#a339e5"] ;
617 -> 618 ;
619 [label=<x<SUB>180</SUB> &le; 4.0<br/>gini = 0.694<br/>samples = 7<br/>value = [0, 0, 3, 0, 1, 0, 2, 0, 0, 1]<br/>class = 2 - two>, fillcolor="#e5fad7"] ;
617 -> 619 ;
620 [label=<x<SUB>382</SUB> &le; 188.5<br/>gini = 0.625<br/>samples = 4<br/>value = [0, 0, 0, 0, 1, 0, 2, 0, 0, 1]<br/>class = 6 - six>, fillcolor="#bebdf6"] ;
619 -> 620 ;
621 [label=<x<SUB>438</SUB> &le; 40.5<br/>gini = 0.5<br/>samples = 2<br/>value = [0, 0, 0, 0, 1, 0, 0, 0, 0, 1]<br/>class = 4 - four>, fillcolor="#ffffff"] ;
620 -> 621 ;
622 [label=<gini = 0.0<br/>samples = 1<br/>value = [0, 0, 0, 0, 1, 0, 0, 0, 0, 0]<br/>class = 4 - four>, fillcolor="#39e5c5"] ;
621 -> 622 ;
623 [label=<gini = 0.0<br/>samples = 1<br/>value = [0, 0, 0, 0, 0, 0, 0, 0, 0, 1]<br/>class = 9 - nine>, fillcolor="#e53958"] ;
621 -> 623 ;
624 [label=<gini = 0.0<br/>samples = 2<br/>value = [0, 0, 0, 0, 0, 0, 2, 0, 0, 0]<br/>class = 6 - six>, fillcolor="#3c39e5"] ;
620 -> 624 ;
625 [label=<gini = 0.0<br/>samples = 3<br/>value = [0, 0, 3, 0, 0, 0, 0, 0, 0, 0]<br/>class = 2 - two>, fillcolor="#7be539"] ;
619 -> 625 ;
626 [label=<x<SUB>481</SUB> &le; 31.0<br/>gini = 0.206<br/>samples = 53<br/>value = [0, 0, 2, 0, 0, 0, 0, 47, 0, 4]<br/>class = 7 - seven>, fillcolor="#ae51e8"] ;
604 -> 626 ;
627 [label=<x<SUB>385</SUB> &le; 130.0<br/>gini = 0.041<br/>samples = 48<br/>value = [0, 0, 1, 0, 0, 0, 0, 47, 0, 0]<br/>class = 7 - seven>, fillcolor="#a53de6"] ;
626 -> 627 ;
628 [label=<gini = 0.0<br/>samples = 47<br/>value = [0, 0, 0, 0, 0, 0, 0, 47, 0, 0]<br/>class = 7 - seven>, fillcolor="#a339e5"] ;
627 -> 628 ;
629 [label=<gini = 0.0<br/>samples = 1<br/>value = [0, 0, 1, 0, 0, 0, 0, 0, 0, 0]<br/>class = 2 - two>, fillcolor="#7be539"] ;
627 -> 629 ;
